digraph Tree {
node [shape=box, style="filled, rounded", color="black", fontname=helvetica] ;
edge [fontname=helvetica] ;
0 [label="Env3 <= 38.145\nmse = 10.12\nsamples = 205192\nvalue = 38.326", fillcolor="#efb083"] ;
1 [label="Env3 <= 33.275\nmse = 6.472\nsamples = 73043\nvalue = 35.146", fillcolor="#f3c3a1"] ;
0 -> 1 [labeldistance=2.5, labelangle=45, headlabel="True"] ;
2 [label="Env3 <= 30.915\nmse = 5.043\nsamples = 16427\nvalue = 31.377", fillcolor="#f7dac4"] ;
1 -> 2 ;
3 [label="Env1 <= 1.015\nmse = 5.648\nsamples = 8530\nvalue = 30.188", fillcolor="#f9e1d0"] ;
2 -> 3 ;
4 [label="Env2 <= 1.085\nmse = 6.101\nsamples = 4348\nvalue = 28.805", fillcolor="#fae9dd"] ;
3 -> 4 ;
5 [label="Env7 <= 68.565\nmse = 5.418\nsamples = 1757\nvalue = 29.911", fillcolor="#f9e2d2"] ;
4 -> 5 ;
6 [label="Reward <= -1.42\nmse = 1.398\nsamples = 422\nvalue = 31.481", fillcolor="#f7d9c3"] ;
5 -> 6 ;
7 [label="mse = 4.065\nsamples = 8\nvalue = 28.348", fillcolor="#fbece1"] ;
6 -> 7 ;
8 [label="현재값 <= 63.09\nmse = 1.161\nsamples = 414\nvalue = 31.54", fillcolor="#f7d9c3"] ;
6 -> 8 ;
9 [label="Env7 <= 68.485\nmse = 0.736\nsamples = 400\nvalue = 31.6", fillcolor="#f7d8c2"] ;
8 -> 9 ;
10 [label="Env5 <= 6.995\nmse = 0.372\nsamples = 334\nvalue = 31.703", fillcolor="#f7d8c1"] ;
9 -> 10 ;
11 [label="Env5 <= 6.915\nmse = 0.083\nsamples = 97\nvalue = 31.309", fillcolor="#f7dac5"] ;
10 -> 11 ;
12 [label="(...)", fillcolor="#C0C0C0"] ;
11 -> 12 ;
15 [label="(...)", fillcolor="#C0C0C0"] ;
11 -> 15 ;
18 [label="Env5 <= 7.085\nmse = 0.401\nsamples = 237\nvalue = 31.867", fillcolor="#f7d7c0"] ;
10 -> 18 ;
19 [label="(...)", fillcolor="#C0C0C0"] ;
18 -> 19 ;
22 [label="(...)", fillcolor="#C0C0C0"] ;
18 -> 22 ;
25 [label="Reward <= -0.475\nmse = 2.285\nsamples = 66\nvalue = 31.063", fillcolor="#f8dcc7"] ;
9 -> 25 ;
26 [label="mse = 5.088\nsamples = 10\nvalue = 29.441", fillcolor="#fae5d7"] ;
25 -> 26 ;
27 [label="현재값 <= 61.935\nmse = 0.966\nsamples = 56\nvalue = 31.419", fillcolor="#f7d9c4"] ;
25 -> 27 ;
28 [label="(...)", fillcolor="#C0C0C0"] ;
27 -> 28 ;
31 [label="(...)", fillcolor="#C0C0C0"] ;
27 -> 31 ;
32 [label="mse = 10.479\nsamples = 14\nvalue = 29.761", fillcolor="#f9e3d4"] ;
8 -> 32 ;
33 [label="Env7 <= 69.395\nmse = 5.663\nsamples = 1335\nvalue = 29.432", fillcolor="#fae5d7"] ;
5 -> 33 ;
34 [label="현재값 <= 62.165\nmse = 5.782\nsamples = 870\nvalue = 28.564", fillcolor="#fbebdf"] ;
33 -> 34 ;
35 [label="현재값 <= 59.145\nmse = 5.753\nsamples = 579\nvalue = 29.018", fillcolor="#fae8db"] ;
34 -> 35 ;
36 [label="Env3 <= 29.105\nmse = 4.725\nsamples = 158\nvalue = 27.931", fillcolor="#fceee5"] ;
35 -> 36 ;
37 [label="Env4 <= 1.255\nmse = 4.014\nsamples = 149\nvalue = 27.719", fillcolor="#fcf0e7"] ;
36 -> 37 ;
38 [label="(...)", fillcolor="#C0C0C0"] ;
37 -> 38 ;
41 [label="(...)", fillcolor="#C0C0C0"] ;
37 -> 41 ;
44 [label="mse = 3.974\nsamples = 9\nvalue = 31.297", fillcolor="#f7dac5"] ;
36 -> 44 ;
45 [label="Env3 <= 28.875\nmse = 5.484\nsamples = 421\nvalue = 29.471", fillcolor="#fae5d6"] ;
35 -> 45 ;
46 [label="Env7 <= 68.795\nmse = 3.953\nsamples = 265\nvalue = 30.213", fillcolor="#f9e1cf"] ;
45 -> 46 ;
47 [label="(...)", fillcolor="#C0C0C0"] ;
46 -> 47 ;
50 [label="(...)", fillcolor="#C0C0C0"] ;
46 -> 50 ;
53 [label="Env4 <= 1.135\nmse = 5.634\nsamples = 156\nvalue = 28.274", fillcolor="#fbece2"] ;
45 -> 53 ;
54 [label="(...)", fillcolor="#C0C0C0"] ;
53 -> 54 ;
55 [label="(...)", fillcolor="#C0C0C0"] ;
53 -> 55 ;
58 [label="Env4 <= 1.205\nmse = 4.674\nsamples = 291\nvalue = 27.689", fillcolor="#fcf0e7"] ;
34 -> 58 ;
59 [label="Env3 <= 28.84\nmse = 6.43\nsamples = 157\nvalue = 28.631", fillcolor="#fbeade"] ;
58 -> 59 ;
60 [label="Env4 <= 1.185\nmse = 6.466\nsamples = 106\nvalue = 29.538", fillcolor="#fae5d6"] ;
59 -> 60 ;
61 [label="(...)", fillcolor="#C0C0C0"] ;
60 -> 61 ;
64 [label="(...)", fillcolor="#C0C0C0"] ;
60 -> 64 ;
67 [label="Env4 <= 1.155\nmse = 1.524\nsamples = 51\nvalue = 26.839", fillcolor="#fdf5ef"] ;
59 -> 67 ;
68 [label="(...)", fillcolor="#C0C0C0"] ;
67 -> 68 ;
69 [label="(...)", fillcolor="#C0C0C0"] ;
67 -> 69 ;
72 [label="Env5 <= 7.015\nmse = 0.534\nsamples = 134\nvalue = 26.621", fillcolor="#fdf6f1"] ;
58 -> 72 ;
73 [label="Env5 <= 6.945\nmse = 0.119\nsamples = 61\nvalue = 26.137", fillcolor="#fef9f6"] ;
72 -> 73 ;
74 [label="(...)", fillcolor="#C0C0C0"] ;
73 -> 74 ;
77 [label="(...)", fillcolor="#C0C0C0"] ;
73 -> 77 ;
80 [label="Env7 <= 68.715\nmse = 0.524\nsamples = 73\nvalue = 27.021", fillcolor="#fdf4ed"] ;
72 -> 80 ;
81 [label="(...)", fillcolor="#C0C0C0"] ;
80 -> 81 ;
82 [label="(...)", fillcolor="#C0C0C0"] ;
80 -> 82 ;
85 [label="현재값 <= 63.815\nmse = 1.416\nsamples = 465\nvalue = 31.051", fillcolor="#f8dcc7"] ;
33 -> 85 ;
86 [label="Env5 <= 6.905\nmse = 1.0\nsamples = 450\nvalue = 31.154", fillcolor="#f8dbc6"] ;
85 -> 86 ;
87 [label="Env7 <= 69.495\nmse = 1.707\nsamples = 64\nvalue = 30.285", fillcolor="#f9e0cf"] ;
86 -> 87 ;
88 [label="mse = 6.074\nsamples = 11\nvalue = 28.62", fillcolor="#fbeade"] ;
87 -> 88 ;
89 [label="현재값 <= 58.775\nmse = 0.325\nsamples = 53\nvalue = 30.586", fillcolor="#f8decc"] ;
87 -> 89 ;
90 [label="(...)", fillcolor="#C0C0C0"] ;
89 -> 90 ;
91 [label="(...)", fillcolor="#C0C0C0"] ;
89 -> 91 ;
94 [label="현재값 <= 58.815\nmse = 0.753\nsamples = 386\nvalue = 31.289", fillcolor="#f7dac5"] ;
86 -> 94 ;
95 [label="Env5 <= 7.015\nmse = 0.142\nsamples = 69\nvalue = 31.853", fillcolor="#f7d7c0"] ;
94 -> 95 ;
96 [label="(...)", fillcolor="#C0C0C0"] ;
95 -> 96 ;
99 [label="(...)", fillcolor="#C0C0C0"] ;
95 -> 99 ;
102 [label="Reward <= -0.245\nmse = 0.801\nsamples = 317\nvalue = 31.171", fillcolor="#f8dbc6"] ;
94 -> 102 ;
103 [label="(...)", fillcolor="#C0C0C0"] ;
102 -> 103 ;
106 [label="(...)", fillcolor="#C0C0C0"] ;
102 -> 106 ;
109 [label="mse = 3.322\nsamples = 15\nvalue = 27.668", fillcolor="#fcf0e7"] ;
85 -> 109 ;
110 [label="Env7 <= 69.74\nmse = 5.184\nsamples = 2591\nvalue = 28.061", fillcolor="#fbeee4"] ;
4 -> 110 ;
111 [label="Env7 <= 68.485\nmse = 4.843\nsamples = 2485\nvalue = 27.922", fillcolor="#fceee5"] ;
110 -> 111 ;
112 [label="Env4 <= 1.225\nmse = 3.945\nsamples = 184\nvalue = 30.479", fillcolor="#f8dfcd"] ;
111 -> 112 ;
113 [label="Env7 <= 68.385\nmse = 1.926\nsamples = 118\nvalue = 31.197", fillcolor="#f8dbc6"] ;
112 -> 113 ;
114 [label="Env3 <= 28.695\nmse = 0.751\nsamples = 87\nvalue = 31.536", fillcolor="#f7d9c3"] ;
113 -> 114 ;
115 [label="Env7 <= 68.29\nmse = 2.054\nsamples = 26\nvalue = 31.126", fillcolor="#f8dbc7"] ;
114 -> 115 ;
116 [label="(...)", fillcolor="#C0C0C0"] ;
115 -> 116 ;
119 [label="(...)", fillcolor="#C0C0C0"] ;
115 -> 119 ;
120 [label="Env5 <= 7.035\nmse = 0.132\nsamples = 61\nvalue = 31.701", fillcolor="#f7d8c1"] ;
114 -> 120 ;
121 [label="(...)", fillcolor="#C0C0C0"] ;
120 -> 121 ;
124 [label="(...)", fillcolor="#C0C0C0"] ;
120 -> 124 ;
127 [label="Env1 <= 0.975\nmse = 3.865\nsamples = 31\nvalue = 30.348", fillcolor="#f9e0ce"] ;
113 -> 127 ;
128 [label="mse = 4.537\nsamples = 11\nvalue = 28.206", fillcolor="#fbede2"] ;
127 -> 128 ;
129 [label="Env5 <= 6.965\nmse = 0.089\nsamples = 20\nvalue = 31.419", fillcolor="#f7d9c4"] ;
127 -> 129 ;
130 [label="(...)", fillcolor="#C0C0C0"] ;
129 -> 130 ;
131 [label="(...)", fillcolor="#C0C0C0"] ;
129 -> 131 ;
132 [label="Reward <= -1.655\nmse = 5.004\nsamples = 66\nvalue = 29.241", fillcolor="#fae6d8"] ;
112 -> 132 ;
133 [label="mse = 0.126\nsamples = 13\nvalue = 27.039", fillcolor="#fdf4ed"] ;
132 -> 133 ;
134 [label="Env3 <= 28.715\nmse = 4.745\nsamples = 53\nvalue = 29.756", fillcolor="#f9e3d4"] ;
132 -> 134 ;
135 [label="mse = 3.996\nsamples = 14\nvalue = 28.015", fillcolor="#fbeee4"] ;
134 -> 135 ;
136 [label="Env3 <= 29.445\nmse = 3.606\nsamples = 39\nvalue = 30.353", fillcolor="#f9e0ce"] ;
134 -> 136 ;
137 [label="(...)", fillcolor="#C0C0C0"] ;
136 -> 137 ;
140 [label="(...)", fillcolor="#C0C0C0"] ;
136 -> 140 ;
143 [label="Env4 <= 1.185\nmse = 4.312\nsamples = 2301\nvalue = 27.704", fillcolor="#fcf0e7"] ;
111 -> 143 ;
144 [label="Env3 <= 29.125\nmse = 6.975\nsamples = 490\nvalue = 28.688", fillcolor="#fbeade"] ;
143 -> 144 ;
145 [label="현재값 <= 60.74\nmse = 6.68\nsamples = 446\nvalue = 28.408", fillcolor="#fbebe0"] ;
144 -> 145 ;
146 [label="Env6 <= 33.65\nmse = 0.12\nsamples = 37\nvalue = 31.324", fillcolor="#f7dac5"] ;
145 -> 146 ;
147 [label="(...)", fillcolor="#C0C0C0"] ;
146 -> 147 ;
150 [label="(...)", fillcolor="#C0C0C0"] ;
146 -> 150 ;
153 [label="현재값 <= 64.46\nmse = 6.431\nsamples = 409\nvalue = 28.141", fillcolor="#fbede3"] ;
145 -> 153 ;
154 [label="(...)", fillcolor="#C0C0C0"] ;
153 -> 154 ;
157 [label="(...)", fillcolor="#C0C0C0"] ;
153 -> 157 ;
158 [label="Env4 <= 1.145\nmse = 2.604\nsamples = 44\nvalue = 31.201", fillcolor="#f8dbc6"] ;
144 -> 158 ;
159 [label="Env5 <= 7.035\nmse = 0.165\nsamples = 32\nvalue = 31.825", fillcolor="#f7d7c0"] ;
158 -> 159 ;
160 [label="(...)", fillcolor="#C0C0C0"] ;
159 -> 160 ;
161 [label="(...)", fillcolor="#C0C0C0"] ;
159 -> 161 ;
164 [label="mse = 5.274\nsamples = 12\nvalue = 29.718", fillcolor="#f9e4d4"] ;
158 -> 164 ;
165 [label="현재값 <= 64.115\nmse = 3.217\nsamples = 1811\nvalue = 27.427", fillcolor="#fcf1ea"] ;
143 -> 165 ;
166 [label="Env7 <= 68.745\nmse = 2.728\nsamples = 1672\nvalue = 27.309", fillcolor="#fcf2eb"] ;
165 -> 166 ;
167 [label="Reward <= 2.21\nmse = 4.64\nsamples = 279\nvalue = 28.259", fillcolor="#fbece2"] ;
166 -> 167 ;
168 [label="(...)", fillcolor="#C0C0C0"] ;
167 -> 168 ;
171 [label="(...)", fillcolor="#C0C0C0"] ;
167 -> 171 ;
174 [label="Env3 <= 28.945\nmse = 2.144\nsamples = 1393\nvalue = 27.123", fillcolor="#fdf3ec"] ;
166 -> 174 ;
175 [label="(...)", fillcolor="#C0C0C0"] ;
174 -> 175 ;
178 [label="(...)", fillcolor="#C0C0C0"] ;
174 -> 178 ;
181 [label="Env3 <= 28.635\nmse = 6.857\nsamples = 139\nvalue = 28.831", fillcolor="#fae9dc"] ;
165 -> 181 ;
182 [label="Env3 <= 28.575\nmse = 4.252\nsamples = 75\nvalue = 27.469", fillcolor="#fcf1e9"] ;
181 -> 182 ;
183 [label="(...)", fillcolor="#C0C0C0"] ;
182 -> 183 ;
186 [label="(...)", fillcolor="#C0C0C0"] ;
182 -> 186 ;
189 [label="Reward <= 4.745\nmse = 5.365\nsamples = 64\nvalue = 30.36", fillcolor="#f9e0ce"] ;
181 -> 189 ;
190 [label="(...)", fillcolor="#C0C0C0"] ;
189 -> 190 ;
193 [label="(...)", fillcolor="#C0C0C0"] ;
189 -> 193 ;
194 [label="Env5 <= 6.935\nmse = 0.541\nsamples = 106\nvalue = 31.669", fillcolor="#f7d8c2"] ;
110 -> 194 ;
195 [label="mse = 1.604\nsamples = 13\nvalue = 30.416", fillcolor="#f8dfcd"] ;
194 -> 195 ;
196 [label="Env4 <= 1.235\nmse = 0.113\nsamples = 93\nvalue = 31.856", fillcolor="#f7d7c0"] ;
194 -> 196 ;
197 [label="현재값 <= 61.015\nmse = 0.051\nsamples = 62\nvalue = 31.684", fillcolor="#f7d8c1"] ;
196 -> 197 ;
198 [label="Env1 <= 1.005\nmse = 0.009\nsamples = 17\nvalue = 31.947", fillcolor="#f7d6bf"] ;
197 -> 198 ;
199 [label="mse = 0.002\nsamples = 9\nvalue = 31.846", fillcolor="#f7d7c0"] ;
198 -> 199 ;
200 [label="mse = 0.001\nsamples = 8\nvalue = 32.019", fillcolor="#f7d6be"] ;
198 -> 200 ;
201 [label="Env5 <= 7.07\nmse = 0.033\nsamples = 45\nvalue = 31.589", fillcolor="#f7d8c2"] ;
197 -> 201 ;
202 [label="Env6 <= 33.455\nmse = 0.018\nsamples = 37\nvalue = 31.537", fillcolor="#f7d9c3"] ;
201 -> 202 ;
203 [label="(...)", fillcolor="#C0C0C0"] ;
202 -> 203 ;
206 [label="(...)", fillcolor="#C0C0C0"] ;
202 -> 206 ;
209 [label="mse = 0.022\nsamples = 8\nvalue = 31.855", fillcolor="#f7d7c0"] ;
201 -> 209 ;
210 [label="Env6 <= 32.46\nmse = 0.046\nsamples = 31\nvalue = 32.222", fillcolor="#f6d5bc"] ;
196 -> 210 ;
211 [label="Env5 <= 7.045\nmse = 0.022\nsamples = 21\nvalue = 32.104", fillcolor="#f6d5bd"] ;
210 -> 211 ;
212 [label="mse = 0.009\nsamples = 8\nvalue = 31.926", fillcolor="#f7d6bf"] ;
211 -> 212 ;
213 [label="mse = 0.007\nsamples = 13\nvalue = 32.185", fillcolor="#f6d5bd"] ;
211 -> 213 ;
214 [label="mse = 0.008\nsamples = 10\nvalue = 32.466", fillcolor="#f6d3ba"] ;
210 -> 214 ;
215 [label="Env6 <= 33.415\nmse = 1.123\nsamples = 4182\nvalue = 31.626", fillcolor="#f7d8c2"] ;
3 -> 215 ;
216 [label="Env3 <= 28.695\nmse = 0.663\nsamples = 2952\nvalue = 31.162", fillcolor="#f8dbc6"] ;
215 -> 216 ;
217 [label="Env5 <= 6.955\nmse = 0.295\nsamples = 2084\nvalue = 30.842", fillcolor="#f8ddc9"] ;
216 -> 217 ;
218 [label="Reward <= 2.715\nmse = 0.573\nsamples = 297\nvalue = 30.148", fillcolor="#f9e1d0"] ;
217 -> 218 ;
219 [label="Env4 <= 1.305\nmse = 0.194\nsamples = 289\nvalue = 30.236", fillcolor="#f9e0cf"] ;
218 -> 219 ;
220 [label="Env1 <= 1.035\nmse = 0.186\nsamples = 204\nvalue = 30.139", fillcolor="#f9e1d0"] ;
219 -> 220 ;
221 [label="mse = 1.951\nsamples = 11\nvalue = 29.518", fillcolor="#fae5d6"] ;
220 -> 221 ;
222 [label="Env3 <= 27.995\nmse = 0.068\nsamples = 193\nvalue = 30.173", fillcolor="#f9e1d0"] ;
220 -> 222 ;
223 [label="(...)", fillcolor="#C0C0C0"] ;
222 -> 223 ;
226 [label="(...)", fillcolor="#C0C0C0"] ;
222 -> 226 ;
229 [label="Env7 <= 71.045\nmse = 0.129\nsamples = 85\nvalue = 30.483", fillcolor="#f8dfcd"] ;
219 -> 229 ;
230 [label="mse = 0.213\nsamples = 8\nvalue = 31.362", fillcolor="#f7dac4"] ;
229 -> 230 ;
231 [label="Env7 <= 71.355\nmse = 0.023\nsamples = 77\nvalue = 30.385", fillcolor="#f9e0ce"] ;
229 -> 231 ;
232 [label="(...)", fillcolor="#C0C0C0"] ;
231 -> 232 ;
235 [label="(...)", fillcolor="#C0C0C0"] ;
231 -> 235 ;
238 [label="mse = 4.38\nsamples = 8\nvalue = 27.251", fillcolor="#fcf2eb"] ;
218 -> 238 ;
239 [label="현재값 <= 50.63\nmse = 0.154\nsamples = 1787\nvalue = 30.958", fillcolor="#f8dcc8"] ;
217 -> 239 ;
240 [label="Env7 <= 69.225\nmse = 0.174\nsamples = 124\nvalue = 31.614", fillcolor="#f7d8c2"] ;
239 -> 240 ;
241 [label="현재값 <= 46.84\nmse = 0.049\nsamples = 39\nvalue = 32.246", fillcolor="#f6d4bc"] ;
240 -> 241 ;
242 [label="Reward <= -9.255\nmse = 0.014\nsamples = 17\nvalue = 32.0", fillcolor="#f7d6be"] ;
241 -> 242 ;
243 [label="(...)", fillcolor="#C0C0C0"] ;
242 -> 243 ;
244 [label="(...)", fillcolor="#C0C0C0"] ;
242 -> 244 ;
245 [label="현재값 <= 48.29\nmse = 0.01\nsamples = 22\nvalue = 32.398", fillcolor="#f6d4bb"] ;
241 -> 245 ;
246 [label="(...)", fillcolor="#C0C0C0"] ;
245 -> 246 ;
247 [label="(...)", fillcolor="#C0C0C0"] ;
245 -> 247 ;
248 [label="현재값 <= 46.425\nmse = 0.008\nsamples = 85\nvalue = 31.37", fillcolor="#f7dac4"] ;
240 -> 248 ;
249 [label="현재값 <= 45.36\nmse = 0.003\nsamples = 48\nvalue = 31.432", fillcolor="#f7d9c4"] ;
248 -> 249 ;
250 [label="(...)", fillcolor="#C0C0C0"] ;
249 -> 250 ;
253 [label="(...)", fillcolor="#C0C0C0"] ;
249 -> 253 ;
256 [label="Env4 <= 1.185\nmse = 0.004\nsamples = 37\nvalue = 31.29", fillcolor="#f7dac5"] ;
248 -> 256 ;
257 [label="(...)", fillcolor="#C0C0C0"] ;
256 -> 257 ;
260 [label="(...)", fillcolor="#C0C0C0"] ;
256 -> 260 ;
263 [label="Reward <= 3.665\nmse = 0.114\nsamples = 1663\nvalue = 30.904", fillcolor="#f8dcc9"] ;
239 -> 263 ;
264 [label="현재값 <= 58.165\nmse = 0.073\nsamples = 1570\nvalue = 30.867", fillcolor="#f8ddc9"] ;
263 -> 264 ;
265 [label="Env5 <= 7.065\nmse = 0.054\nsamples = 1177\nvalue = 30.819", fillcolor="#f8ddca"] ;
264 -> 265 ;
266 [label="(...)", fillcolor="#C0C0C0"] ;
265 -> 266 ;
269 [label="(...)", fillcolor="#C0C0C0"] ;
265 -> 269 ;
272 [label="Env4 <= 1.31\nmse = 0.102\nsamples = 393\nvalue = 31.023", fillcolor="#f8dcc8"] ;
264 -> 272 ;
273 [label="(...)", fillcolor="#C0C0C0"] ;
272 -> 273 ;
276 [label="(...)", fillcolor="#C0C0C0"] ;
272 -> 276 ;
277 [label="Env6 <= 33.2\nmse = 0.404\nsamples = 93\nvalue = 31.515", fillcolor="#f7d9c3"] ;
263 -> 277 ;
278 [label="Env3 <= 27.955\nmse = 0.035\nsamples = 85\nvalue = 31.597", fillcolor="#f7d8c2"] ;
277 -> 278 ;
279 [label="(...)", fillcolor="#C0C0C0"] ;
278 -> 279 ;
282 [label="(...)", fillcolor="#C0C0C0"] ;
278 -> 282 ;
285 [label="mse = 3.445\nsamples = 8\nvalue = 30.662", fillcolor="#f8decb"] ;
277 -> 285 ;
286 [label="Env5 <= 6.975\nmse = 0.721\nsamples = 868\nvalue = 31.917", fillcolor="#f7d6bf"] ;
216 -> 286 ;
287 [label="Env6 <= 32.825\nmse = 2.937\nsamples = 137\nvalue = 31.037", fillcolor="#f8dcc8"] ;
286 -> 287 ;
288 [label="Env7 <= 69.325\nmse = 1.569\nsamples = 128\nvalue = 31.346", fillcolor="#f7dac5"] ;
287 -> 288 ;
289 [label="mse = 7.663\nsamples = 13\nvalue = 29.736", fillcolor="#f9e3d4"] ;
288 -> 289 ;
290 [label="Env5 <= 6.935\nmse = 0.067\nsamples = 115\nvalue = 31.611", fillcolor="#f7d8c2"] ;
288 -> 290 ;
291 [label="Env7 <= 70.605\nmse = 0.024\nsamples = 63\nvalue = 31.459", fillcolor="#f7d9c4"] ;
290 -> 291 ;
292 [label="(...)", fillcolor="#C0C0C0"] ;
291 -> 292 ;
295 [label="(...)", fillcolor="#C0C0C0"] ;
291 -> 295 ;
298 [label="Env5 <= 6.965\nmse = 0.055\nsamples = 52\nvalue = 31.801", fillcolor="#f7d7c0"] ;
290 -> 298 ;
299 [label="(...)", fillcolor="#C0C0C0"] ;
298 -> 299 ;
302 [label="(...)", fillcolor="#C0C0C0"] ;
298 -> 302 ;
305 [label="mse = 1.936\nsamples = 9\nvalue = 26.678", fillcolor="#fdf6f1"] ;
287 -> 305 ;
306 [label="Env7 <= 68.82\nmse = 0.113\nsamples = 731\nvalue = 32.087", fillcolor="#f6d5be"] ;
286 -> 306 ;
307 [label="Env4 <= 1.155\nmse = 0.046\nsamples = 54\nvalue = 32.71", fillcolor="#f6d2b8"] ;
306 -> 307 ;
308 [label="Env6 <= 32.965\nmse = 0.001\nsamples = 18\nvalue = 32.957", fillcolor="#f5d0b5"] ;
307 -> 308 ;
309 [label="mse = 0.001\nsamples = 9\nvalue = 32.946", fillcolor="#f5d0b6"] ;
308 -> 309 ;
310 [label="mse = 0.0\nsamples = 9\nvalue = 32.97", fillcolor="#f5d0b5"] ;
308 -> 310 ;
311 [label="Reward <= 3.365\nmse = 0.026\nsamples = 36\nvalue = 32.597", fillcolor="#f6d2b9"] ;
307 -> 311 ;
312 [label="Env1 <= 1.045\nmse = 0.031\nsamples = 20\nvalue = 32.546", fillcolor="#f6d3b9"] ;
311 -> 312 ;
313 [label="(...)", fillcolor="#C0C0C0"] ;
312 -> 313 ;
314 [label="(...)", fillcolor="#C0C0C0"] ;
312 -> 314 ;
315 [label="Reward <= 3.92\nmse = 0.001\nsamples = 16\nvalue = 32.699", fillcolor="#f6d2b8"] ;
311 -> 315 ;
316 [label="(...)", fillcolor="#C0C0C0"] ;
315 -> 316 ;
317 [label="(...)", fillcolor="#C0C0C0"] ;
315 -> 317 ;
318 [label="Env4 <= 1.245\nmse = 0.087\nsamples = 677\nvalue = 32.04", fillcolor="#f6d6be"] ;
306 -> 318 ;
319 [label="Env4 <= 1.135\nmse = 0.076\nsamples = 298\nvalue = 31.819", fillcolor="#f7d7c0"] ;
318 -> 319 ;
320 [label="Env6 <= 32.63\nmse = 0.007\nsamples = 144\nvalue = 31.924", fillcolor="#f7d6bf"] ;
319 -> 320 ;
321 [label="(...)", fillcolor="#C0C0C0"] ;
320 -> 321 ;
324 [label="(...)", fillcolor="#C0C0C0"] ;
320 -> 324 ;
327 [label="Reward <= -1.085\nmse = 0.125\nsamples = 154\nvalue = 31.709", fillcolor="#f7d8c1"] ;
319 -> 327 ;
328 [label="(...)", fillcolor="#C0C0C0"] ;
327 -> 328 ;
331 [label="(...)", fillcolor="#C0C0C0"] ;
327 -> 331 ;
334 [label="Env6 <= 32.04\nmse = 0.027\nsamples = 379\nvalue = 32.213", fillcolor="#f6d5bc"] ;
318 -> 334 ;
335 [label="Env4 <= 1.315\nmse = 0.062\nsamples = 21\nvalue = 31.896", fillcolor="#f7d7bf"] ;
334 -> 335 ;
336 [label="(...)", fillcolor="#C0C0C0"] ;
335 -> 336 ;
337 [label="(...)", fillcolor="#C0C0C0"] ;
335 -> 337 ;
338 [label="현재값 <= 59.485\nmse = 0.02\nsamples = 358\nvalue = 32.23", fillcolor="#f6d5bc"] ;
334 -> 338 ;
339 [label="(...)", fillcolor="#C0C0C0"] ;
338 -> 339 ;
342 [label="(...)", fillcolor="#C0C0C0"] ;
338 -> 342 ;
345 [label="Env6 <= 36.525\nmse = 0.499\nsamples = 1230\nvalue = 32.722", fillcolor="#f6d2b8"] ;
215 -> 345 ;
346 [label="Env6 <= 35.18\nmse = 0.163\nsamples = 835\nvalue = 32.335", fillcolor="#f6d4bb"] ;
345 -> 346 ;
347 [label="Env7 <= 68.465\nmse = 0.105\nsamples = 593\nvalue = 32.17", fillcolor="#f6d5bd"] ;
346 -> 347 ;
348 [label="현재값 <= 53.21\nmse = 0.032\nsamples = 150\nvalue = 32.443", fillcolor="#f6d3ba"] ;
347 -> 348 ;
349 [label="현재값 <= 51.15\nmse = 0.01\nsamples = 54\nvalue = 32.643", fillcolor="#f6d2b8"] ;
348 -> 349 ;
350 [label="Env7 <= 68.335\nmse = 0.002\nsamples = 17\nvalue = 32.532", fillcolor="#f6d3b9"] ;
349 -> 350 ;
351 [label="(...)", fillcolor="#C0C0C0"] ;
350 -> 351 ;
352 [label="(...)", fillcolor="#C0C0C0"] ;
350 -> 352 ;
353 [label="Reward <= -2.315\nmse = 0.006\nsamples = 37\nvalue = 32.694", fillcolor="#f6d2b8"] ;
349 -> 353 ;
354 [label="(...)", fillcolor="#C0C0C0"] ;
353 -> 354 ;
357 [label="(...)", fillcolor="#C0C0C0"] ;
353 -> 357 ;
358 [label="Env7 <= 68.23\nmse = 0.012\nsamples = 96\nvalue = 32.339", fillcolor="#f6d4bb"] ;
348 -> 358 ;
359 [label="Env3 <= 27.21\nmse = 0.005\nsamples = 73\nvalue = 32.381", fillcolor="#f6d4bb"] ;
358 -> 359 ;
360 [label="(...)", fillcolor="#C0C0C0"] ;
359 -> 360 ;
363 [label="(...)", fillcolor="#C0C0C0"] ;
359 -> 363 ;
366 [label="현재값 <= 56.63\nmse = 0.01\nsamples = 23\nvalue = 32.198", fillcolor="#f6d5bd"] ;
358 -> 366 ;
367 [label="(...)", fillcolor="#C0C0C0"] ;
366 -> 367 ;
368 [label="(...)", fillcolor="#C0C0C0"] ;
366 -> 368 ;
369 [label="Env7 <= 69.87\nmse = 0.096\nsamples = 443\nvalue = 32.081", fillcolor="#f6d5be"] ;
347 -> 369 ;
370 [label="Env4 <= 1.15\nmse = 0.083\nsamples = 361\nvalue = 32.138", fillcolor="#f6d5bd"] ;
369 -> 370 ;
371 [label="mse = 0.013\nsamples = 15\nvalue = 32.594", fillcolor="#f6d2b9"] ;
370 -> 371 ;
372 [label="Reward <= -4.215\nmse = 0.077\nsamples = 346\nvalue = 32.119", fillcolor="#f6d5bd"] ;
370 -> 372 ;
373 [label="(...)", fillcolor="#C0C0C0"] ;
372 -> 373 ;
376 [label="(...)", fillcolor="#C0C0C0"] ;
372 -> 376 ;
379 [label="Env4 <= 1.185\nmse = 0.077\nsamples = 82\nvalue = 31.831", fillcolor="#f7d7c0"] ;
369 -> 379 ;
380 [label="Env7 <= 70.035\nmse = 0.017\nsamples = 71\nvalue = 31.907", fillcolor="#f7d6bf"] ;
379 -> 380 ;
381 [label="(...)", fillcolor="#C0C0C0"] ;
380 -> 381 ;
384 [label="(...)", fillcolor="#C0C0C0"] ;
380 -> 384 ;
387 [label="mse = 0.154\nsamples = 11\nvalue = 31.262", fillcolor="#f7dac5"] ;
379 -> 387 ;
388 [label="Reward <= -0.805\nmse = 0.072\nsamples = 242\nvalue = 32.743", fillcolor="#f6d1b7"] ;
346 -> 388 ;
389 [label="Env6 <= 36.2\nmse = 0.037\nsamples = 84\nvalue = 32.482", fillcolor="#f6d3ba"] ;
388 -> 389 ;
390 [label="Env5 <= 6.995\nmse = 0.013\nsamples = 55\nvalue = 32.397", fillcolor="#f6d4bb"] ;
389 -> 390 ;
391 [label="현재값 <= 46.585\nmse = 0.011\nsamples = 25\nvalue = 32.312", fillcolor="#f6d4bc"] ;
390 -> 391 ;
392 [label="(...)", fillcolor="#C0C0C0"] ;
391 -> 392 ;
395 [label="(...)", fillcolor="#C0C0C0"] ;
391 -> 395 ;
396 [label="Reward <= -6.745\nmse = 0.006\nsamples = 30\nvalue = 32.456", fillcolor="#f6d3ba"] ;
390 -> 396 ;
397 [label="(...)", fillcolor="#C0C0C0"] ;
396 -> 397 ;
400 [label="(...)", fillcolor="#C0C0C0"] ;
396 -> 400 ;
401 [label="Env7 <= 68.81\nmse = 0.036\nsamples = 29\nvalue = 32.678", fillcolor="#f6d2b8"] ;
389 -> 401 ;
402 [label="mse = 0.053\nsamples = 8\nvalue = 32.866", fillcolor="#f5d1b6"] ;
401 -> 402 ;
403 [label="Env2 <= 1.2\nmse = 0.011\nsamples = 21\nvalue = 32.608", fillcolor="#f6d2b9"] ;
401 -> 403 ;
404 [label="(...)", fillcolor="#C0C0C0"] ;
403 -> 404 ;
405 [label="(...)", fillcolor="#C0C0C0"] ;
403 -> 405 ;
406 [label="Reward <= 11.065\nmse = 0.029\nsamples = 158\nvalue = 32.896", fillcolor="#f5d1b6"] ;
388 -> 406 ;
407 [label="현재값 <= 56.17\nmse = 0.024\nsamples = 125\nvalue = 32.947", fillcolor="#f5d0b6"] ;
406 -> 407 ;
408 [label="Env4 <= 1.185\nmse = 0.008\nsamples = 39\nvalue = 32.756", fillcolor="#f6d1b7"] ;
407 -> 408 ;
409 [label="(...)", fillcolor="#C0C0C0"] ;
408 -> 409 ;
410 [label="(...)", fillcolor="#C0C0C0"] ;
408 -> 410 ;
413 [label="Env7 <= 69.555\nmse = 0.007\nsamples = 86\nvalue = 33.034", fillcolor="#f5d0b5"] ;
407 -> 413 ;
414 [label="(...)", fillcolor="#C0C0C0"] ;
413 -> 414 ;
415 [label="(...)", fillcolor="#C0C0C0"] ;
413 -> 415 ;
418 [label="Reward <= 12.24\nmse = 0.007\nsamples = 33\nvalue = 32.718", fillcolor="#f6d2b8"] ;
406 -> 418 ;
419 [label="mse = 0.001\nsamples = 14\nvalue = 32.805", fillcolor="#f6d1b7"] ;
418 -> 419 ;
420 [label="Env2 <= 1.235\nmse = 0.003\nsamples = 19\nvalue = 32.665", fillcolor="#f6d2b8"] ;
418 -> 420 ;
421 [label="(...)", fillcolor="#C0C0C0"] ;
420 -> 421 ;
422 [label="(...)", fillcolor="#C0C0C0"] ;
420 -> 422 ;
423 [label="Env7 <= 68.115\nmse = 0.18\nsamples = 395\nvalue = 33.577", fillcolor="#f5ccb0"] ;
345 -> 423 ;
424 [label="Env7 <= 67.585\nmse = 0.049\nsamples = 140\nvalue = 34.101", fillcolor="#f4c9ab"] ;
423 -> 424 ;
425 [label="Reward <= 11.08\nmse = 0.013\nsamples = 88\nvalue = 34.228", fillcolor="#f4c9a9"] ;
424 -> 425 ;
426 [label="Env7 <= 66.985\nmse = 0.003\nsamples = 68\nvalue = 34.283", fillcolor="#f4c8a9"] ;
425 -> 426 ;
427 [label="mse = 0.002\nsamples = 8\nvalue = 34.229", fillcolor="#f4c9a9"] ;
426 -> 427 ;
428 [label="Env7 <= 67.385\nmse = 0.002\nsamples = 60\nvalue = 34.292", fillcolor="#f4c8a9"] ;
426 -> 428 ;
429 [label="(...)", fillcolor="#C0C0C0"] ;
428 -> 429 ;
432 [label="(...)", fillcolor="#C0C0C0"] ;
428 -> 432 ;
435 [label="현재값 <= 67.4\nmse = 0.002\nsamples = 20\nvalue = 34.034", fillcolor="#f4caab"] ;
425 -> 435 ;
436 [label="mse = 0.002\nsamples = 12\nvalue = 34.015", fillcolor="#f4caab"] ;
435 -> 436 ;
437 [label="mse = 0.001\nsamples = 8\nvalue = 34.058", fillcolor="#f4caab"] ;
435 -> 437 ;
438 [label="현재값 <= 53.55\nmse = 0.036\nsamples = 52\nvalue = 33.892", fillcolor="#f4cbad"] ;
424 -> 438 ;
439 [label="mse = 0.018\nsamples = 14\nvalue = 33.619", fillcolor="#f5ccaf"] ;
438 -> 439 ;
440 [label="Reward <= 12.325\nmse = 0.007\nsamples = 38\nvalue = 33.989", fillcolor="#f4caac"] ;
438 -> 440 ;
441 [label="mse = 0.015\nsamples = 8\nvalue = 34.061", fillcolor="#f4caab"] ;
440 -> 441 ;
442 [label="Env3 <= 27.31\nmse = 0.002\nsamples = 30\nvalue = 33.966", fillcolor="#f4caac"] ;
440 -> 442 ;
443 [label="(...)", fillcolor="#C0C0C0"] ;
442 -> 443 ;
446 [label="(...)", fillcolor="#C0C0C0"] ;
442 -> 446 ;
447 [label="Env6 <= 36.955\nmse = 0.032\nsamples = 255\nvalue = 33.305", fillcolor="#f5ceb2"] ;
423 -> 447 ;
448 [label="Env1 <= 1.195\nmse = 0.018\nsamples = 105\nvalue = 33.155", fillcolor="#f5cfb4"] ;
447 -> 448 ;
449 [label="Reward <= -5.775\nmse = 0.009\nsamples = 94\nvalue = 33.176", fillcolor="#f5cfb3"] ;
448 -> 449 ;
450 [label="mse = 0.046\nsamples = 8\nvalue = 33.048", fillcolor="#f5d0b5"] ;
449 -> 450 ;
451 [label="Env3 <= 27.845\nmse = 0.003\nsamples = 86\nvalue = 33.189", fillcolor="#f5cfb3"] ;
449 -> 451 ;
452 [label="(...)", fillcolor="#C0C0C0"] ;
451 -> 452 ;
455 [label="(...)", fillcolor="#C0C0C0"] ;
451 -> 455 ;
458 [label="mse = 0.065\nsamples = 11\nvalue = 32.944", fillcolor="#f5d0b6"] ;
448 -> 458 ;
459 [label="현재값 <= 64.775\nmse = 0.012\nsamples = 150\nvalue = 33.42", fillcolor="#f5cdb1"] ;
447 -> 459 ;
460 [label="Env3 <= 27.64\nmse = 0.006\nsamples = 142\nvalue = 33.405", fillcolor="#f5cdb1"] ;
459 -> 460 ;
461 [label="Env3 <= 27.37\nmse = 0.003\nsamples = 62\nvalue = 33.447", fillcolor="#f5cdb1"] ;
460 -> 461 ;
462 [label="(...)", fillcolor="#C0C0C0"] ;
461 -> 462 ;
463 [label="(...)", fillcolor="#C0C0C0"] ;
461 -> 463 ;
466 [label="Env6 <= 37.06\nmse = 0.006\nsamples = 80\nvalue = 33.372", fillcolor="#f5ceb2"] ;
460 -> 466 ;
467 [label="(...)", fillcolor="#C0C0C0"] ;
466 -> 467 ;
468 [label="(...)", fillcolor="#C0C0C0"] ;
466 -> 468 ;
471 [label="mse = 0.023\nsamples = 8\nvalue = 33.73", fillcolor="#f4ccae"] ;
459 -> 471 ;
472 [label="Env1 <= 0.87\nmse = 1.13\nsamples = 7897\nvalue = 32.681", fillcolor="#f6d2b8"] ;
2 -> 472 ;
473 [label="Env2 <= 1.095\nmse = 1.016\nsamples = 5000\nvalue = 33.102", fillcolor="#f5cfb4"] ;
472 -> 473 ;
474 [label="Target <= 61.995\nmse = 0.893\nsamples = 4805\nvalue = 33.025", fillcolor="#f5d0b5"] ;
473 -> 474 ;
475 [label="Env2 <= 1.025\nmse = 0.838\nsamples = 4105\nvalue = 33.171", fillcolor="#f5cfb3"] ;
474 -> 475 ;
476 [label="Env6 <= 34.725\nmse = 0.718\nsamples = 1543\nvalue = 32.846", fillcolor="#f5d1b6"] ;
475 -> 476 ;
477 [label="Env4 <= 0.925\nmse = 0.818\nsamples = 1053\nvalue = 32.594", fillcolor="#f6d2b9"] ;
476 -> 477 ;
478 [label="현재값 <= 64.09\nmse = 0.662\nsamples = 624\nvalue = 32.311", fillcolor="#f6d4bc"] ;
477 -> 478 ;
479 [label="Env4 <= 0.825\nmse = 0.604\nsamples = 568\nvalue = 32.209", fillcolor="#f6d5bc"] ;
478 -> 479 ;
480 [label="(...)", fillcolor="#C0C0C0"] ;
479 -> 480 ;
483 [label="(...)", fillcolor="#C0C0C0"] ;
479 -> 483 ;
486 [label="Env6 <= 34.1\nmse = 0.086\nsamples = 56\nvalue = 33.336", fillcolor="#f5ceb2"] ;
478 -> 486 ;
487 [label="(...)", fillcolor="#C0C0C0"] ;
486 -> 487 ;
490 [label="(...)", fillcolor="#C0C0C0"] ;
486 -> 490 ;
493 [label="Env3 <= 32.135\nmse = 0.754\nsamples = 429\nvalue = 33.013", fillcolor="#f5d0b5"] ;
477 -> 493 ;
494 [label="Reward <= 0.01\nmse = 0.396\nsamples = 159\nvalue = 33.307", fillcolor="#f5ceb2"] ;
493 -> 494 ;
495 [label="(...)", fillcolor="#C0C0C0"] ;
494 -> 495 ;
498 [label="(...)", fillcolor="#C0C0C0"] ;
494 -> 498 ;
501 [label="Env3 <= 33.005\nmse = 0.888\nsamples = 270\nvalue = 32.832", fillcolor="#f5d1b7"] ;
493 -> 501 ;
502 [label="(...)", fillcolor="#C0C0C0"] ;
501 -> 502 ;
505 [label="(...)", fillcolor="#C0C0C0"] ;
501 -> 505 ;
508 [label="Env3 <= 32.5\nmse = 0.087\nsamples = 490\nvalue = 33.38", fillcolor="#f5ceb1"] ;
476 -> 508 ;
509 [label="Env4 <= 1.125\nmse = 0.059\nsamples = 473\nvalue = 33.403", fillcolor="#f5ceb1"] ;
508 -> 509 ;
510 [label="Env6 <= 34.795\nmse = 0.061\nsamples = 372\nvalue = 33.353", fillcolor="#f5ceb2"] ;
509 -> 510 ;
511 [label="(...)", fillcolor="#C0C0C0"] ;
510 -> 511 ;
514 [label="(...)", fillcolor="#C0C0C0"] ;
510 -> 514 ;
517 [label="Env7 <= 69.135\nmse = 0.011\nsamples = 101\nvalue = 33.583", fillcolor="#f5ccb0"] ;
509 -> 517 ;
518 [label="(...)", fillcolor="#C0C0C0"] ;
517 -> 518 ;
521 [label="(...)", fillcolor="#C0C0C0"] ;
517 -> 521 ;
524 [label="Env4 <= 0.835\nmse = 0.442\nsamples = 17\nvalue = 32.737", fillcolor="#f6d2b8"] ;
508 -> 524 ;
525 [label="mse = 0.023\nsamples = 8\nvalue = 33.186", fillcolor="#f5cfb3"] ;
524 -> 525 ;
526 [label="mse = 0.401\nsamples = 9\nvalue = 32.177", fillcolor="#f6d5bd"] ;
524 -> 526 ;
527 [label="현재값 <= 57.535\nmse = 0.809\nsamples = 2562\nvalue = 33.365", fillcolor="#f5ceb2"] ;
475 -> 527 ;
528 [label="현재값 <= 55.805\nmse = 0.592\nsamples = 283\nvalue = 33.914", fillcolor="#f4caac"] ;
527 -> 528 ;
529 [label="Env4 <= 1.15\nmse = 0.448\nsamples = 161\nvalue = 33.542", fillcolor="#f5cdb0"] ;
528 -> 529 ;
530 [label="현재값 <= 52.83\nmse = 0.267\nsamples = 153\nvalue = 33.636", fillcolor="#f4ccaf"] ;
529 -> 530 ;
531 [label="(...)", fillcolor="#C0C0C0"] ;
530 -> 531 ;
534 [label="(...)", fillcolor="#C0C0C0"] ;
530 -> 534 ;
537 [label="mse = 0.516\nsamples = 8\nvalue = 31.754", fillcolor="#f7d7c1"] ;
529 -> 537 ;
538 [label="Target <= 57.5\nmse = 0.398\nsamples = 122\nvalue = 34.362", fillcolor="#f4c8a8"] ;
528 -> 538 ;
539 [label="Env2 <= 1.055\nmse = 0.025\nsamples = 22\nvalue = 35.154", fillcolor="#f3c3a1"] ;
538 -> 539 ;
540 [label="(...)", fillcolor="#C0C0C0"] ;
539 -> 540 ;
541 [label="(...)", fillcolor="#C0C0C0"] ;
539 -> 541 ;
542 [label="Env5 <= 6.965\nmse = 0.315\nsamples = 100\nvalue = 34.193", fillcolor="#f4c9aa"] ;
538 -> 542 ;
543 [label="(...)", fillcolor="#C0C0C0"] ;
542 -> 543 ;
546 [label="(...)", fillcolor="#C0C0C0"] ;
542 -> 546 ;
549 [label="Env4 <= 1.165\nmse = 0.794\nsamples = 2279\nvalue = 33.298", fillcolor="#f5ceb2"] ;
527 -> 549 ;
550 [label="Env2 <= 1.055\nmse = 0.402\nsamples = 2197\nvalue = 33.329", fillcolor="#f5ceb2"] ;
549 -> 550 ;
551 [label="Reward <= -0.375\nmse = 0.412\nsamples = 1366\nvalue = 33.218", fillcolor="#f5cfb3"] ;
550 -> 551 ;
552 [label="(...)", fillcolor="#C0C0C0"] ;
551 -> 552 ;
555 [label="(...)", fillcolor="#C0C0C0"] ;
551 -> 555 ;
558 [label="Env3 <= 32.675\nmse = 0.334\nsamples = 831\nvalue = 33.507", fillcolor="#f5cdb0"] ;
550 -> 558 ;
559 [label="(...)", fillcolor="#C0C0C0"] ;
558 -> 559 ;
562 [label="(...)", fillcolor="#C0C0C0"] ;
558 -> 562 ;
565 [label="현재값 <= 60.1\nmse = 10.914\nsamples = 82\nvalue = 32.457", fillcolor="#f6d3ba"] ;
549 -> 565 ;
566 [label="Env4 <= 1.195\nmse = 44.173\nsamples = 18\nvalue = 29.027", fillcolor="#fae8da"] ;
565 -> 566 ;
567 [label="(...)", fillcolor="#C0C0C0"] ;
566 -> 567 ;
568 [label="(...)", fillcolor="#C0C0C0"] ;
566 -> 568 ;
569 [label="Env7 <= 68.875\nmse = 0.273\nsamples = 64\nvalue = 33.223", fillcolor="#f5cfb3"] ;
565 -> 569 ;
570 [label="(...)", fillcolor="#C0C0C0"] ;
569 -> 570 ;
571 [label="(...)", fillcolor="#C0C0C0"] ;
569 -> 571 ;
574 [label="Env7 <= 69.435\nmse = 0.342\nsamples = 700\nvalue = 32.161", fillcolor="#f6d5bd"] ;
474 -> 574 ;
575 [label="Env2 <= 1.025\nmse = 0.354\nsamples = 531\nvalue = 32.22", fillcolor="#f6d5bc"] ;
574 -> 575 ;
576 [label="현재값 <= 61.13\nmse = 0.35\nsamples = 359\nvalue = 32.281", fillcolor="#f6d4bc"] ;
575 -> 576 ;
577 [label="Env3 <= 32.615\nmse = 0.297\nsamples = 38\nvalue = 32.614", fillcolor="#f6d2b9"] ;
576 -> 577 ;
578 [label="Env2 <= 0.995\nmse = 0.182\nsamples = 28\nvalue = 32.78", fillcolor="#f6d1b7"] ;
577 -> 578 ;
579 [label="(...)", fillcolor="#C0C0C0"] ;
578 -> 579 ;
580 [label="(...)", fillcolor="#C0C0C0"] ;
578 -> 580 ;
581 [label="mse = 0.302\nsamples = 10\nvalue = 32.094", fillcolor="#f6d5be"] ;
577 -> 581 ;
582 [label="Reward <= 0.06\nmse = 0.342\nsamples = 321\nvalue = 32.242", fillcolor="#f6d4bc"] ;
576 -> 582 ;
583 [label="Env7 <= 68.425\nmse = 0.351\nsamples = 157\nvalue = 32.135", fillcolor="#f6d5bd"] ;
582 -> 583 ;
584 [label="(...)", fillcolor="#C0C0C0"] ;
583 -> 584 ;
585 [label="(...)", fillcolor="#C0C0C0"] ;
583 -> 585 ;
588 [label="Env3 <= 32.78\nmse = 0.314\nsamples = 164\nvalue = 32.339", fillcolor="#f6d4bb"] ;
582 -> 588 ;
589 [label="(...)", fillcolor="#C0C0C0"] ;
588 -> 589 ;
592 [label="(...)", fillcolor="#C0C0C0"] ;
588 -> 592 ;
595 [label="Env4 <= 1.085\nmse = 0.34\nsamples = 172\nvalue = 32.098", fillcolor="#f6d5be"] ;
575 -> 595 ;
596 [label="Env6 <= 32.985\nmse = 0.358\nsamples = 95\nvalue = 32.199", fillcolor="#f6d5bd"] ;
595 -> 596 ;
597 [label="mse = 0.431\nsamples = 8\nvalue = 31.75", fillcolor="#f7d7c1"] ;
596 -> 597 ;
598 [label="Env7 <= 69.015\nmse = 0.331\nsamples = 87\nvalue = 32.241", fillcolor="#f6d4bc"] ;
596 -> 598 ;
599 [label="(...)", fillcolor="#C0C0C0"] ;
598 -> 599 ;
602 [label="(...)", fillcolor="#C0C0C0"] ;
598 -> 602 ;
605 [label="Env3 <= 32.69\nmse = 0.289\nsamples = 77\nvalue = 31.974", fillcolor="#f7d6bf"] ;
595 -> 605 ;
606 [label="Env4 <= 1.23\nmse = 0.261\nsamples = 69\nvalue = 31.93", fillcolor="#f7d6bf"] ;
605 -> 606 ;
607 [label="(...)", fillcolor="#C0C0C0"] ;
606 -> 607 ;
610 [label="(...)", fillcolor="#C0C0C0"] ;
606 -> 610 ;
611 [label="mse = 0.353\nsamples = 8\nvalue = 32.427", fillcolor="#f6d3ba"] ;
605 -> 611 ;
612 [label="현재값 <= 66.02\nmse = 0.258\nsamples = 169\nvalue = 31.975", fillcolor="#f7d6bf"] ;
574 -> 612 ;
613 [label="Env1 <= 0.765\nmse = 0.237\nsamples = 127\nvalue = 31.869", fillcolor="#f7d7c0"] ;
612 -> 613 ;
614 [label="Env6 <= 33.79\nmse = 0.16\nsamples = 25\nvalue = 32.167", fillcolor="#f6d5bd"] ;
613 -> 614 ;
615 [label="Reward <= -3.545\nmse = 0.135\nsamples = 16\nvalue = 32.067", fillcolor="#f6d6be"] ;
614 -> 615 ;
616 [label="(...)", fillcolor="#C0C0C0"] ;
615 -> 616 ;
617 [label="(...)", fillcolor="#C0C0C0"] ;
615 -> 617 ;
618 [label="mse = 0.162\nsamples = 9\nvalue = 32.306", fillcolor="#f6d4bc"] ;
614 -> 618 ;
619 [label="Env5 <= 6.925\nmse = 0.23\nsamples = 102\nvalue = 31.804", fillcolor="#f7d7c0"] ;
613 -> 619 ;
620 [label="현재값 <= 63.235\nmse = 0.163\nsamples = 16\nvalue = 32.139", fillcolor="#f6d5bd"] ;
619 -> 620 ;
621 [label="(...)", fillcolor="#C0C0C0"] ;
620 -> 621 ;
622 [label="(...)", fillcolor="#C0C0C0"] ;
620 -> 622 ;
623 [label="Env5 <= 7.075\nmse = 0.217\nsamples = 86\nvalue = 31.737", fillcolor="#f7d7c1"] ;
619 -> 623 ;
624 [label="(...)", fillcolor="#C0C0C0"] ;
623 -> 624 ;
627 [label="(...)", fillcolor="#C0C0C0"] ;
623 -> 627 ;
630 [label="Env3 <= 32.165\nmse = 0.174\nsamples = 42\nvalue = 32.316", fillcolor="#f6d4bb"] ;
612 -> 630 ;
631 [label="Env5 <= 7.015\nmse = 0.1\nsamples = 21\nvalue = 32.498", fillcolor="#f6d3ba"] ;
630 -> 631 ;
632 [label="mse = 0.121\nsamples = 10\nvalue = 32.353", fillcolor="#f6d4bb"] ;
631 -> 632 ;
633 [label="mse = 0.036\nsamples = 11\nvalue = 32.644", fillcolor="#f6d2b8"] ;
631 -> 633 ;
634 [label="Env5 <= 7.065\nmse = 0.176\nsamples = 21\nvalue = 32.096", fillcolor="#f6d5be"] ;
630 -> 634 ;
635 [label="mse = 0.153\nsamples = 12\nvalue = 31.968", fillcolor="#f7d6bf"] ;
634 -> 635 ;
636 [label="mse = 0.134\nsamples = 9\nvalue = 32.325", fillcolor="#f6d4bb"] ;
634 -> 636 ;
637 [label="Env4 <= 1.165\nmse = 0.284\nsamples = 195\nvalue = 35.011", fillcolor="#f3c4a2"] ;
473 -> 637 ;
638 [label="현재값 <= 59.955\nmse = 0.235\nsamples = 19\nvalue = 33.811", fillcolor="#f4cbad"] ;
637 -> 638 ;
639 [label="mse = 0.29\nsamples = 8\nvalue = 34.152", fillcolor="#f4c9aa"] ;
638 -> 639 ;
640 [label="mse = 0.068\nsamples = 11\nvalue = 33.584", fillcolor="#f5ccb0"] ;
638 -> 640 ;
641 [label="Env7 <= 72.15\nmse = 0.116\nsamples = 176\nvalue = 35.142", fillcolor="#f3c3a1"] ;
637 -> 641 ;
642 [label="Env4 <= 1.275\nmse = 0.08\nsamples = 100\nvalue = 35.345", fillcolor="#f2c29f"] ;
641 -> 642 ;
643 [label="Env4 <= 1.235\nmse = 0.021\nsamples = 67\nvalue = 35.491", fillcolor="#f2c19e"] ;
642 -> 643 ;
644 [label="현재값 <= 64.94\nmse = 0.021\nsamples = 44\nvalue = 35.552", fillcolor="#f2c19d"] ;
643 -> 644 ;
645 [label="Env4 <= 1.205\nmse = 0.022\nsamples = 34\nvalue = 35.521", fillcolor="#f2c19d"] ;
644 -> 645 ;
646 [label="(...)", fillcolor="#C0C0C0"] ;
645 -> 646 ;
649 [label="(...)", fillcolor="#C0C0C0"] ;
645 -> 649 ;
650 [label="mse = 0.003\nsamples = 10\nvalue = 35.654", fillcolor="#f2c09c"] ;
644 -> 650 ;
651 [label="현재값 <= 66.685\nmse = 0.007\nsamples = 23\nvalue = 35.398", fillcolor="#f2c29e"] ;
643 -> 651 ;
652 [label="mse = 0.013\nsamples = 8\nvalue = 35.464", fillcolor="#f2c19e"] ;
651 -> 652 ;
653 [label="mse = 0.002\nsamples = 15\nvalue = 35.369", fillcolor="#f2c29f"] ;
651 -> 653 ;
654 [label="Reward <= 1.455\nmse = 0.077\nsamples = 33\nvalue = 35.077", fillcolor="#f3c3a1"] ;
642 -> 654 ;
655 [label="Env3 <= 32.855\nmse = 0.094\nsamples = 24\nvalue = 35.034", fillcolor="#f3c4a2"] ;
654 -> 655 ;
656 [label="mse = 0.238\nsamples = 8\nvalue = 34.828", fillcolor="#f3c5a4"] ;
655 -> 656 ;
657 [label="Env5 <= 7.005\nmse = 0.002\nsamples = 16\nvalue = 35.126", fillcolor="#f3c3a1"] ;
655 -> 657 ;
658 [label="(...)", fillcolor="#C0C0C0"] ;
657 -> 658 ;
659 [label="(...)", fillcolor="#C0C0C0"] ;
657 -> 659 ;
660 [label="mse = 0.007\nsamples = 9\nvalue = 35.197", fillcolor="#f3c3a0"] ;
654 -> 660 ;
661 [label="현재값 <= 64.325\nmse = 0.025\nsamples = 76\nvalue = 34.853", fillcolor="#f3c5a4"] ;
641 -> 661 ;
662 [label="mse = 0.0\nsamples = 13\nvalue = 34.528", fillcolor="#f3c7a7"] ;
661 -> 662 ;
663 [label="Env5 <= 6.995\nmse = 0.009\nsamples = 63\nvalue = 34.906", fillcolor="#f3c4a3"] ;
661 -> 663 ;
664 [label="Env4 <= 1.305\nmse = 0.004\nsamples = 18\nvalue = 35.023", fillcolor="#f3c4a2"] ;
663 -> 664 ;
665 [label="mse = 0.002\nsamples = 8\nvalue = 35.062", fillcolor="#f3c4a2"] ;
664 -> 665 ;
666 [label="mse = 0.002\nsamples = 10\nvalue = 34.973", fillcolor="#f3c4a2"] ;
664 -> 666 ;
667 [label="Env5 <= 7.005\nmse = 0.004\nsamples = 45\nvalue = 34.862", fillcolor="#f3c5a3"] ;
663 -> 667 ;
668 [label="mse = 0.003\nsamples = 15\nvalue = 34.9", fillcolor="#f3c5a3"] ;
667 -> 668 ;
669 [label="Reward <= 5.775\nmse = 0.003\nsamples = 30\nvalue = 34.843", fillcolor="#f3c5a4"] ;
667 -> 669 ;
670 [label="(...)", fillcolor="#C0C0C0"] ;
669 -> 670 ;
673 [label="(...)", fillcolor="#C0C0C0"] ;
669 -> 673 ;
674 [label="현재값 <= 57.41\nmse = 0.496\nsamples = 2897\nvalue = 31.957", fillcolor="#f7d6bf"] ;
472 -> 674 ;
675 [label="Env4 <= 1.295\nmse = 0.41\nsamples = 67\nvalue = 34.192", fillcolor="#f4c9aa"] ;
674 -> 675 ;
676 [label="Env6 <= 33.41\nmse = 0.15\nsamples = 34\nvalue = 33.582", fillcolor="#f5ccb0"] ;
675 -> 676 ;
677 [label="Env4 <= 1.195\nmse = 0.009\nsamples = 16\nvalue = 33.159", fillcolor="#f5cfb4"] ;
676 -> 677 ;
678 [label="mse = 0.001\nsamples = 8\nvalue = 33.101", fillcolor="#f5cfb4"] ;
677 -> 678 ;
679 [label="mse = 0.011\nsamples = 8\nvalue = 33.216", fillcolor="#f5cfb3"] ;
677 -> 679 ;
680 [label="Env4 <= 1.275\nmse = 0.018\nsamples = 18\nvalue = 33.902", fillcolor="#f4cbad"] ;
676 -> 680 ;
681 [label="mse = 0.006\nsamples = 10\nvalue = 33.808", fillcolor="#f4cbad"] ;
680 -> 681 ;
682 [label="mse = 0.007\nsamples = 8\nvalue = 34.018", fillcolor="#f4caab"] ;
680 -> 682 ;
683 [label="Env4 <= 1.325\nmse = 0.045\nsamples = 33\nvalue = 34.712", fillcolor="#f3c6a5"] ;
675 -> 683 ;
684 [label="mse = 0.02\nsamples = 11\nvalue = 34.478", fillcolor="#f3c7a7"] ;
683 -> 684 ;
685 [label="현재값 <= 56.825\nmse = 0.01\nsamples = 22\nvalue = 34.847", fillcolor="#f3c5a4"] ;
683 -> 685 ;
686 [label="mse = 0.015\nsamples = 8\nvalue = 34.968", fillcolor="#f3c4a2"] ;
685 -> 686 ;
687 [label="mse = 0.001\nsamples = 14\nvalue = 34.804", fillcolor="#f3c5a4"] ;
685 -> 687 ;
688 [label="Env4 <= 1.365\nmse = 0.371\nsamples = 2830\nvalue = 31.902", fillcolor="#f7d7bf"] ;
674 -> 688 ;
689 [label="Env4 <= 0.825\nmse = 0.302\nsamples = 2767\nvalue = 31.864", fillcolor="#f7d7c0"] ;
688 -> 689 ;
690 [label="Env7 <= 69.58\nmse = 0.233\nsamples = 806\nvalue = 31.637", fillcolor="#f7d8c2"] ;
689 -> 690 ;
691 [label="Reward <= 4.25\nmse = 0.313\nsamples = 251\nvalue = 31.5", fillcolor="#f7d9c3"] ;
690 -> 691 ;
692 [label="Env5 <= 7.015\nmse = 0.318\nsamples = 223\nvalue = 31.461", fillcolor="#f7d9c4"] ;
691 -> 692 ;
693 [label="Reward <= 1.865\nmse = 0.294\nsamples = 132\nvalue = 31.533", fillcolor="#f7d9c3"] ;
692 -> 693 ;
694 [label="(...)", fillcolor="#C0C0C0"] ;
693 -> 694 ;
697 [label="(...)", fillcolor="#C0C0C0"] ;
693 -> 697 ;
700 [label="현재값 <= 60.345\nmse = 0.335\nsamples = 91\nvalue = 31.353", fillcolor="#f7dac5"] ;
692 -> 700 ;
701 [label="(...)", fillcolor="#C0C0C0"] ;
700 -> 701 ;
702 [label="(...)", fillcolor="#C0C0C0"] ;
700 -> 702 ;
705 [label="현재값 <= 64.915\nmse = 0.175\nsamples = 28\nvalue = 31.802", fillcolor="#f7d7c0"] ;
691 -> 705 ;
706 [label="mse = 0.132\nsamples = 11\nvalue = 31.948", fillcolor="#f7d6bf"] ;
705 -> 706 ;
707 [label="현재값 <= 65.27\nmse = 0.176\nsamples = 17\nvalue = 31.674", fillcolor="#f7d8c2"] ;
705 -> 707 ;
708 [label="(...)", fillcolor="#C0C0C0"] ;
707 -> 708 ;
709 [label="(...)", fillcolor="#C0C0C0"] ;
707 -> 709 ;
710 [label="Env7 <= 70.905\nmse = 0.187\nsamples = 555\nvalue = 31.696", fillcolor="#f7d8c1"] ;
690 -> 710 ;
711 [label="Env7 <= 70.755\nmse = 0.184\nsamples = 527\nvalue = 31.675", fillcolor="#f7d8c2"] ;
710 -> 711 ;
712 [label="Env6 <= 34.415\nmse = 0.18\nsamples = 509\nvalue = 31.686", fillcolor="#f7d8c1"] ;
711 -> 712 ;
713 [label="(...)", fillcolor="#C0C0C0"] ;
712 -> 713 ;
716 [label="(...)", fillcolor="#C0C0C0"] ;
712 -> 716 ;
719 [label="Reward <= 2.14\nmse = 0.209\nsamples = 18\nvalue = 31.384", fillcolor="#f7dac4"] ;
711 -> 719 ;
720 [label="(...)", fillcolor="#C0C0C0"] ;
719 -> 720 ;
721 [label="(...)", fillcolor="#C0C0C0"] ;
719 -> 721 ;
722 [label="현재값 <= 62.18\nmse = 0.063\nsamples = 28\nvalue = 32.104", fillcolor="#f6d5bd"] ;
710 -> 722 ;
723 [label="Env7 <= 70.995\nmse = 0.065\nsamples = 20\nvalue = 32.027", fillcolor="#f6d6be"] ;
722 -> 723 ;
724 [label="(...)", fillcolor="#C0C0C0"] ;
723 -> 724 ;
725 [label="(...)", fillcolor="#C0C0C0"] ;
723 -> 725 ;
726 [label="mse = 0.02\nsamples = 8\nvalue = 32.269", fillcolor="#f6d4bc"] ;
722 -> 726 ;
727 [label="Env7 <= 67.245\nmse = 0.3\nsamples = 1961\nvalue = 31.959", fillcolor="#f7d6bf"] ;
689 -> 727 ;
728 [label="Env3 <= 32.225\nmse = 0.647\nsamples = 37\nvalue = 30.858", fillcolor="#f8ddc9"] ;
727 -> 728 ;
729 [label="현재값 <= 62.865\nmse = 0.518\nsamples = 20\nvalue = 30.286", fillcolor="#f9e0cf"] ;
728 -> 729 ;
730 [label="mse = 0.312\nsamples = 8\nvalue = 29.545", fillcolor="#fae5d6"] ;
729 -> 730 ;
731 [label="mse = 0.23\nsamples = 12\nvalue = 30.639", fillcolor="#f8decb"] ;
729 -> 731 ;
732 [label="Env6 <= 32.04\nmse = 0.25\nsamples = 17\nvalue = 31.338", fillcolor="#f7dac5"] ;
728 -> 732 ;
733 [label="mse = 0.064\nsamples = 8\nvalue = 31.004", fillcolor="#f8dcc8"] ;
732 -> 733 ;
734 [label="mse = 0.221\nsamples = 9\nvalue = 31.654", fillcolor="#f7d8c2"] ;
732 -> 734 ;
735 [label="Env1 <= 0.925\nmse = 0.264\nsamples = 1924\nvalue = 31.984", fillcolor="#f7d6bf"] ;
727 -> 735 ;
736 [label="Env3 <= 32.435\nmse = 0.279\nsamples = 865\nvalue = 32.072", fillcolor="#f6d5be"] ;
735 -> 736 ;
737 [label="Env5 <= 7.095\nmse = 0.266\nsamples = 708\nvalue = 32.03", fillcolor="#f6d6be"] ;
736 -> 737 ;
738 [label="(...)", fillcolor="#C0C0C0"] ;
737 -> 738 ;
741 [label="(...)", fillcolor="#C0C0C0"] ;
737 -> 741 ;
744 [label="Env6 <= 33.925\nmse = 0.297\nsamples = 157\nvalue = 32.264", fillcolor="#f6d4bc"] ;
736 -> 744 ;
745 [label="(...)", fillcolor="#C0C0C0"] ;
744 -> 745 ;
748 [label="(...)", fillcolor="#C0C0C0"] ;
744 -> 748 ;
751 [label="Env7 <= 68.975\nmse = 0.241\nsamples = 1059\nvalue = 31.913", fillcolor="#f7d6bf"] ;
735 -> 751 ;
752 [label="현재값 <= 62.145\nmse = 0.309\nsamples = 258\nvalue = 32.057", fillcolor="#f6d6be"] ;
751 -> 752 ;
753 [label="(...)", fillcolor="#C0C0C0"] ;
752 -> 753 ;
754 [label="(...)", fillcolor="#C0C0C0"] ;
752 -> 754 ;
757 [label="Env6 <= 35.165\nmse = 0.213\nsamples = 801\nvalue = 31.871", fillcolor="#f7d7c0"] ;
751 -> 757 ;
758 [label="(...)", fillcolor="#C0C0C0"] ;
757 -> 758 ;
761 [label="(...)", fillcolor="#C0C0C0"] ;
757 -> 761 ;
764 [label="Env7 <= 71.06\nmse = 0.604\nsamples = 63\nvalue = 33.54", fillcolor="#f5cdb0"] ;
688 -> 764 ;
765 [label="현재값 <= 66.35\nmse = 0.121\nsamples = 35\nvalue = 34.107", fillcolor="#f4c9ab"] ;
764 -> 765 ;
766 [label="mse = 0.014\nsamples = 11\nvalue = 34.426", fillcolor="#f4c7a8"] ;
765 -> 766 ;
767 [label="Env2 <= 1.035\nmse = 0.104\nsamples = 24\nvalue = 33.971", fillcolor="#f4caac"] ;
765 -> 767 ;
768 [label="mse = 0.147\nsamples = 10\nvalue = 33.789", fillcolor="#f4cbae"] ;
767 -> 768 ;
769 [label="mse = 0.054\nsamples = 14\nvalue = 34.069", fillcolor="#f4caab"] ;
767 -> 769 ;
770 [label="현재값 <= 64.345\nmse = 0.273\nsamples = 28\nvalue = 32.805", fillcolor="#f6d1b7"] ;
764 -> 770 ;
771 [label="mse = 0.216\nsamples = 10\nvalue = 32.461", fillcolor="#f6d3ba"] ;
770 -> 771 ;
772 [label="Env7 <= 71.22\nmse = 0.219\nsamples = 18\nvalue = 32.965", fillcolor="#f5d0b5"] ;
770 -> 772 ;
773 [label="mse = 0.166\nsamples = 10\nvalue = 33.198", fillcolor="#f5cfb3"] ;
772 -> 773 ;
774 [label="mse = 0.147\nsamples = 8\nvalue = 32.699", fillcolor="#f6d2b8"] ;
772 -> 774 ;
775 [label="Env3 <= 35.405\nmse = 1.546\nsamples = 56616\nvalue = 36.244", fillcolor="#f1bc96"] ;
1 -> 775 ;
776 [label="Env1 <= 0.435\nmse = 1.205\nsamples = 19884\nvalue = 35.51", fillcolor="#f2c19d"] ;
775 -> 776 ;
777 [label="Env6 <= 34.505\nmse = 0.489\nsamples = 5766\nvalue = 34.088", fillcolor="#f4c9ab"] ;
776 -> 777 ;
778 [label="Env6 <= 33.995\nmse = 0.45\nsamples = 2045\nvalue = 33.744", fillcolor="#f4cbae"] ;
777 -> 778 ;
779 [label="Reward <= -1.485\nmse = 0.526\nsamples = 1383\nvalue = 33.669", fillcolor="#f4ccaf"] ;
778 -> 779 ;
780 [label="Env4 <= 0.915\nmse = 0.537\nsamples = 136\nvalue = 33.327", fillcolor="#f5ceb2"] ;
779 -> 780 ;
781 [label="현재값 <= 58.41\nmse = 0.465\nsamples = 87\nvalue = 33.163", fillcolor="#f5cfb3"] ;
780 -> 781 ;
782 [label="Env2 <= 0.965\nmse = 0.461\nsamples = 76\nvalue = 33.227", fillcolor="#f5cfb3"] ;
781 -> 782 ;
783 [label="Env3 <= 34.59\nmse = 0.456\nsamples = 44\nvalue = 33.116", fillcolor="#f5cfb4"] ;
782 -> 783 ;
784 [label="(...)", fillcolor="#C0C0C0"] ;
783 -> 784 ;
787 [label="(...)", fillcolor="#C0C0C0"] ;
783 -> 787 ;
788 [label="Env5 <= 7.025\nmse = 0.424\nsamples = 32\nvalue = 33.389", fillcolor="#f5ceb1"] ;
782 -> 788 ;
789 [label="(...)", fillcolor="#C0C0C0"] ;
788 -> 789 ;
792 [label="(...)", fillcolor="#C0C0C0"] ;
788 -> 792 ;
793 [label="mse = 0.264\nsamples = 11\nvalue = 32.716", fillcolor="#f6d2b8"] ;
781 -> 793 ;
794 [label="Env2 <= 0.985\nmse = 0.534\nsamples = 49\nvalue = 33.61", fillcolor="#f5ccaf"] ;
780 -> 794 ;
795 [label="Reward <= -1.715\nmse = 0.495\nsamples = 35\nvalue = 33.748", fillcolor="#f4cbae"] ;
794 -> 795 ;
796 [label="Env5 <= 7.035\nmse = 0.411\nsamples = 24\nvalue = 33.585", fillcolor="#f5ccb0"] ;
795 -> 796 ;
797 [label="(...)", fillcolor="#C0C0C0"] ;
796 -> 797 ;
800 [label="(...)", fillcolor="#C0C0C0"] ;
796 -> 800 ;
801 [label="mse = 0.43\nsamples = 11\nvalue = 34.237", fillcolor="#f4c9a9"] ;
795 -> 801 ;
802 [label="mse = 0.455\nsamples = 14\nvalue = 33.25", fillcolor="#f5ceb3"] ;
794 -> 802 ;
803 [label="현재값 <= 64.775\nmse = 0.51\nsamples = 1247\nvalue = 33.707", fillcolor="#f4ccae"] ;
779 -> 803 ;
804 [label="Env6 <= 33.345\nmse = 0.568\nsamples = 1030\nvalue = 33.658", fillcolor="#f4ccaf"] ;
803 -> 804 ;
805 [label="Env3 <= 34.255\nmse = 0.495\nsamples = 226\nvalue = 33.489", fillcolor="#f5cdb0"] ;
804 -> 805 ;
806 [label="Env5 <= 6.945\nmse = 0.372\nsamples = 119\nvalue = 33.32", fillcolor="#f5ceb2"] ;
805 -> 806 ;
807 [label="(...)", fillcolor="#C0C0C0"] ;
806 -> 807 ;
810 [label="(...)", fillcolor="#C0C0C0"] ;
806 -> 810 ;
813 [label="Env6 <= 33.315\nmse = 0.561\nsamples = 107\nvalue = 33.666", fillcolor="#f4ccaf"] ;
805 -> 813 ;
814 [label="(...)", fillcolor="#C0C0C0"] ;
813 -> 814 ;
817 [label="(...)", fillcolor="#C0C0C0"] ;
813 -> 817 ;
820 [label="Env6 <= 33.965\nmse = 0.579\nsamples = 804\nvalue = 33.704", fillcolor="#f4ccae"] ;
804 -> 820 ;
821 [label="현재값 <= 59.045\nmse = 0.571\nsamples = 781\nvalue = 33.719", fillcolor="#f4ccae"] ;
820 -> 821 ;
822 [label="(...)", fillcolor="#C0C0C0"] ;
821 -> 822 ;
825 [label="(...)", fillcolor="#C0C0C0"] ;
821 -> 825 ;
828 [label="Env7 <= 70.935\nmse = 0.609\nsamples = 23\nvalue = 33.23", fillcolor="#f5cfb3"] ;
820 -> 828 ;
829 [label="(...)", fillcolor="#C0C0C0"] ;
828 -> 829 ;
830 [label="(...)", fillcolor="#C0C0C0"] ;
828 -> 830 ;
831 [label="Env3 <= 33.63\nmse = 0.189\nsamples = 217\nvalue = 33.925", fillcolor="#f4caac"] ;
803 -> 831 ;
832 [label="Env7 <= 70.97\nmse = 0.006\nsamples = 36\nvalue = 34.241", fillcolor="#f4c8a9"] ;
831 -> 832 ;
833 [label="현재값 <= 68.435\nmse = 0.003\nsamples = 24\nvalue = 34.279", fillcolor="#f4c8a9"] ;
832 -> 833 ;
834 [label="(...)", fillcolor="#C0C0C0"] ;
833 -> 834 ;
835 [label="(...)", fillcolor="#C0C0C0"] ;
833 -> 835 ;
836 [label="mse = 0.003\nsamples = 12\nvalue = 34.153", fillcolor="#f4c9aa"] ;
832 -> 836 ;
837 [label="Env4 <= 0.865\nmse = 0.202\nsamples = 181\nvalue = 33.86", fillcolor="#f4cbad"] ;
831 -> 837 ;
838 [label="mse = 0.34\nsamples = 12\nvalue = 33.441", fillcolor="#f5cdb1"] ;
837 -> 838 ;
839 [label="Env5 <= 7.005\nmse = 0.177\nsamples = 169\nvalue = 33.893", fillcolor="#f4cbad"] ;
837 -> 839 ;
840 [label="(...)", fillcolor="#C0C0C0"] ;
839 -> 840 ;
843 [label="(...)", fillcolor="#C0C0C0"] ;
839 -> 843 ;
846 [label="Env3 <= 34.6\nmse = 0.251\nsamples = 662\nvalue = 33.904", fillcolor="#f4cbad"] ;
778 -> 846 ;
847 [label="Env4 <= 1.045\nmse = 0.183\nsamples = 508\nvalue = 33.827", fillcolor="#f4cbad"] ;
846 -> 847 ;
848 [label="Env3 <= 34.025\nmse = 0.258\nsamples = 268\nvalue = 33.71", fillcolor="#f4ccae"] ;
847 -> 848 ;
849 [label="Env3 <= 33.915\nmse = 0.342\nsamples = 22\nvalue = 34.088", fillcolor="#f4c9ab"] ;
848 -> 849 ;
850 [label="mse = 0.377\nsamples = 9\nvalue = 33.889", fillcolor="#f4cbad"] ;
849 -> 850 ;
851 [label="mse = 0.258\nsamples = 13\nvalue = 34.245", fillcolor="#f4c8a9"] ;
849 -> 851 ;
852 [label="Env5 <= 7.045\nmse = 0.237\nsamples = 246\nvalue = 33.678", fillcolor="#f4ccaf"] ;
848 -> 852 ;
853 [label="Env7 <= 71.035\nmse = 0.116\nsamples = 191\nvalue = 33.728", fillcolor="#f4ccae"] ;
852 -> 853 ;
854 [label="(...)", fillcolor="#C0C0C0"] ;
853 -> 854 ;
857 [label="(...)", fillcolor="#C0C0C0"] ;
853 -> 857 ;
860 [label="Env4 <= 0.895\nmse = 0.661\nsamples = 55\nvalue = 33.483", fillcolor="#f5cdb0"] ;
852 -> 860 ;
861 [label="(...)", fillcolor="#C0C0C0"] ;
860 -> 861 ;
864 [label="(...)", fillcolor="#C0C0C0"] ;
860 -> 864 ;
867 [label="현재값 <= 57.43\nmse = 0.075\nsamples = 240\nvalue = 33.95", fillcolor="#f4caac"] ;
847 -> 867 ;
868 [label="현재값 <= 53.325\nmse = 0.004\nsamples = 52\nvalue = 33.793", fillcolor="#f4cbae"] ;
867 -> 868 ;
869 [label="mse = 0.001\nsamples = 13\nvalue = 33.727", fillcolor="#f4ccae"] ;
868 -> 869 ;
870 [label="Env4 <= 1.165\nmse = 0.003\nsamples = 39\nvalue = 33.817", fillcolor="#f4cbad"] ;
868 -> 870 ;
871 [label="(...)", fillcolor="#C0C0C0"] ;
870 -> 871 ;
874 [label="(...)", fillcolor="#C0C0C0"] ;
870 -> 874 ;
877 [label="Env2 <= 1.005\nmse = 0.085\nsamples = 188\nvalue = 33.99", fillcolor="#f4caac"] ;
867 -> 877 ;
878 [label="Env4 <= 1.195\nmse = 0.07\nsamples = 175\nvalue = 33.973", fillcolor="#f4caac"] ;
877 -> 878 ;
879 [label="(...)", fillcolor="#C0C0C0"] ;
878 -> 879 ;
882 [label="(...)", fillcolor="#C0C0C0"] ;
878 -> 882 ;
885 [label="mse = 0.242\nsamples = 13\nvalue = 34.256", fillcolor="#f4c8a9"] ;
877 -> 885 ;
886 [label="Reward <= 0.72\nmse = 0.394\nsamples = 154\nvalue = 34.169", fillcolor="#f4c9aa"] ;
846 -> 886 ;
887 [label="Env6 <= 34.25\nmse = 0.083\nsamples = 45\nvalue = 33.936", fillcolor="#f4caac"] ;
886 -> 887 ;
888 [label="mse = 0.105\nsamples = 9\nvalue = 34.247", fillcolor="#f4c8a9"] ;
887 -> 888 ;
889 [label="Env4 <= 0.995\nmse = 0.053\nsamples = 36\nvalue = 33.87", fillcolor="#f4cbad"] ;
887 -> 889 ;
890 [label="mse = 0.111\nsamples = 8\nvalue = 33.517", fillcolor="#f5cdb0"] ;
889 -> 890 ;
891 [label="Env4 <= 1.07\nmse = 0.007\nsamples = 28\nvalue = 33.947", fillcolor="#f4caac"] ;
889 -> 891 ;
892 [label="(...)", fillcolor="#C0C0C0"] ;
891 -> 892 ;
895 [label="(...)", fillcolor="#C0C0C0"] ;
891 -> 895 ;
896 [label="Env7 <= 70.715\nmse = 0.497\nsamples = 109\nvalue = 34.272", fillcolor="#f4c8a9"] ;
886 -> 896 ;
897 [label="mse = 0.416\nsamples = 11\nvalue = 34.762", fillcolor="#f3c5a4"] ;
896 -> 897 ;
898 [label="Env7 <= 71.29\nmse = 0.479\nsamples = 98\nvalue = 34.224", fillcolor="#f4c9a9"] ;
896 -> 898 ;
899 [label="Reward <= 3.495\nmse = 0.492\nsamples = 72\nvalue = 34.151", fillcolor="#f4c9aa"] ;
898 -> 899 ;
900 [label="(...)", fillcolor="#C0C0C0"] ;
899 -> 900 ;
903 [label="(...)", fillcolor="#C0C0C0"] ;
899 -> 903 ;
906 [label="Env6 <= 34.395\nmse = 0.385\nsamples = 26\nvalue = 34.432", fillcolor="#f4c7a8"] ;
898 -> 906 ;
907 [label="(...)", fillcolor="#C0C0C0"] ;
906 -> 907 ;
908 [label="(...)", fillcolor="#C0C0C0"] ;
906 -> 908 ;
909 [label="Env2 <= 0.995\nmse = 0.408\nsamples = 3721\nvalue = 34.282", fillcolor="#f4c8a9"] ;
777 -> 909 ;
910 [label="Env3 <= 34.495\nmse = 0.302\nsamples = 1918\nvalue = 34.154", fillcolor="#f4c9aa"] ;
909 -> 910 ;
911 [label="Env4 <= 1.125\nmse = 0.071\nsamples = 861\nvalue = 34.035", fillcolor="#f4caab"] ;
910 -> 911 ;
912 [label="현재값 <= 58.305\nmse = 0.177\nsamples = 186\nvalue = 33.768", fillcolor="#f4cbae"] ;
911 -> 912 ;
913 [label="Env7 <= 71.45\nmse = 0.011\nsamples = 37\nvalue = 34.135", fillcolor="#f4c9aa"] ;
912 -> 913 ;
914 [label="mse = 0.017\nsamples = 14\nvalue = 34.206", fillcolor="#f4c9aa"] ;
913 -> 914 ;
915 [label="Env7 <= 71.655\nmse = 0.002\nsamples = 23\nvalue = 34.089", fillcolor="#f4c9ab"] ;
913 -> 915 ;
916 [label="(...)", fillcolor="#C0C0C0"] ;
915 -> 916 ;
917 [label="(...)", fillcolor="#C0C0C0"] ;
915 -> 917 ;
918 [label="Env6 <= 35.44\nmse = 0.177\nsamples = 149\nvalue = 33.691", fillcolor="#f4ccaf"] ;
912 -> 918 ;
919 [label="Env7 <= 71.505\nmse = 0.133\nsamples = 140\nvalue = 33.735", fillcolor="#f4ccae"] ;
918 -> 919 ;
920 [label="(...)", fillcolor="#C0C0C0"] ;
919 -> 920 ;
923 [label="(...)", fillcolor="#C0C0C0"] ;
919 -> 923 ;
926 [label="mse = 0.375\nsamples = 9\nvalue = 33.061", fillcolor="#f5d0b4"] ;
918 -> 926 ;
927 [label="Reward <= 12.09\nmse = 0.02\nsamples = 675\nvalue = 34.104", fillcolor="#f4c9ab"] ;
911 -> 927 ;
928 [label="Reward <= 0.38\nmse = 0.017\nsamples = 661\nvalue = 34.095", fillcolor="#f4c9ab"] ;
927 -> 928 ;
929 [label="Env7 <= 70.865\nmse = 0.009\nsamples = 215\nvalue = 34.019", fillcolor="#f4caab"] ;
928 -> 929 ;
930 [label="(...)", fillcolor="#C0C0C0"] ;
929 -> 930 ;
933 [label="(...)", fillcolor="#C0C0C0"] ;
929 -> 933 ;
936 [label="Env1 <= 0.255\nmse = 0.017\nsamples = 446\nvalue = 34.131", fillcolor="#f4c9aa"] ;
928 -> 936 ;
937 [label="(...)", fillcolor="#C0C0C0"] ;
936 -> 937 ;
940 [label="(...)", fillcolor="#C0C0C0"] ;
936 -> 940 ;
943 [label="mse = 0.023\nsamples = 14\nvalue = 34.46", fillcolor="#f3c7a7"] ;
927 -> 943 ;
944 [label="현재값 <= 59.345\nmse = 0.464\nsamples = 1057\nvalue = 34.248", fillcolor="#f4c8a9"] ;
910 -> 944 ;
945 [label="Env4 <= 0.915\nmse = 0.514\nsamples = 333\nvalue = 34.046", fillcolor="#f4caab"] ;
944 -> 945 ;
946 [label="Env6 <= 35.095\nmse = 0.679\nsamples = 45\nvalue = 33.746", fillcolor="#f4cbae"] ;
945 -> 946 ;
947 [label="mse = 0.593\nsamples = 10\nvalue = 34.48", fillcolor="#f3c7a7"] ;
946 -> 947 ;
948 [label="Env5 <= 7.045\nmse = 0.553\nsamples = 35\nvalue = 33.584", fillcolor="#f5ccb0"] ;
946 -> 948 ;
949 [label="(...)", fillcolor="#C0C0C0"] ;
948 -> 949 ;
952 [label="(...)", fillcolor="#C0C0C0"] ;
948 -> 952 ;
953 [label="Env5 <= 7.055\nmse = 0.473\nsamples = 288\nvalue = 34.092", fillcolor="#f4c9ab"] ;
945 -> 953 ;
954 [label="Env6 <= 35.385\nmse = 0.415\nsamples = 239\nvalue = 34.15", fillcolor="#f4c9aa"] ;
953 -> 954 ;
955 [label="(...)", fillcolor="#C0C0C0"] ;
954 -> 955 ;
958 [label="(...)", fillcolor="#C0C0C0"] ;
954 -> 958 ;
961 [label="Env7 <= 71.105\nmse = 0.653\nsamples = 49\nvalue = 33.826", fillcolor="#f4cbad"] ;
953 -> 961 ;
962 [label="(...)", fillcolor="#C0C0C0"] ;
961 -> 962 ;
965 [label="(...)", fillcolor="#C0C0C0"] ;
961 -> 965 ;
966 [label="Env4 <= 0.895\nmse = 0.413\nsamples = 724\nvalue = 34.342", fillcolor="#f4c8a8"] ;
944 -> 966 ;
967 [label="Env4 <= 0.815\nmse = 0.679\nsamples = 146\nvalue = 34.058", fillcolor="#f4caab"] ;
966 -> 967 ;
968 [label="mse = 0.32\nsamples = 11\nvalue = 33.449", fillcolor="#f5cdb1"] ;
967 -> 968 ;
969 [label="Env3 <= 34.925\nmse = 0.675\nsamples = 135\nvalue = 34.113", fillcolor="#f4c9ab"] ;
967 -> 969 ;
970 [label="(...)", fillcolor="#C0C0C0"] ;
969 -> 970 ;
973 [label="(...)", fillcolor="#C0C0C0"] ;
969 -> 973 ;
976 [label="Env7 <= 70.555\nmse = 0.323\nsamples = 578\nvalue = 34.411", fillcolor="#f4c7a8"] ;
966 -> 976 ;
977 [label="Env3 <= 34.725\nmse = 0.362\nsamples = 42\nvalue = 34.787", fillcolor="#f3c5a4"] ;
976 -> 977 ;
978 [label="(...)", fillcolor="#C0C0C0"] ;
977 -> 978 ;
979 [label="(...)", fillcolor="#C0C0C0"] ;
977 -> 979 ;
982 [label="Env4 <= 0.955\nmse = 0.309\nsamples = 536\nvalue = 34.382", fillcolor="#f4c8a8"] ;
976 -> 982 ;
983 [label="(...)", fillcolor="#C0C0C0"] ;
982 -> 983 ;
986 [label="(...)", fillcolor="#C0C0C0"] ;
982 -> 986 ;
989 [label="Env4 <= 0.985\nmse = 0.485\nsamples = 1803\nvalue = 34.417", fillcolor="#f4c7a8"] ;
909 -> 989 ;
990 [label="현재값 <= 58.215\nmse = 0.629\nsamples = 1044\nvalue = 34.321", fillcolor="#f4c8a9"] ;
989 -> 990 ;
991 [label="Env7 <= 71.025\nmse = 0.765\nsamples = 53\nvalue = 34.044", fillcolor="#f4caab"] ;
990 -> 991 ;
992 [label="Env2 <= 1.005\nmse = 0.662\nsamples = 36\nvalue = 33.862", fillcolor="#f4cbad"] ;
991 -> 992 ;
993 [label="Reward <= -1.96\nmse = 0.608\nsamples = 16\nvalue = 34.337", fillcolor="#f4c8a8"] ;
992 -> 993 ;
994 [label="(...)", fillcolor="#C0C0C0"] ;
993 -> 994 ;
995 [label="(...)", fillcolor="#C0C0C0"] ;
993 -> 995 ;
996 [label="Env7 <= 70.785\nmse = 0.494\nsamples = 20\nvalue = 33.594", fillcolor="#f5ccaf"] ;
992 -> 996 ;
997 [label="(...)", fillcolor="#C0C0C0"] ;
996 -> 997 ;
998 [label="(...)", fillcolor="#C0C0C0"] ;
996 -> 998 ;
999 [label="Env3 <= 34.745\nmse = 0.759\nsamples = 17\nvalue = 34.439", fillcolor="#f4c7a7"] ;
991 -> 999 ;
1000 [label="mse = 0.514\nsamples = 8\nvalue = 33.85", fillcolor="#f4cbad"] ;
999 -> 1000 ;
1001 [label="mse = 0.548\nsamples = 9\nvalue = 34.82", fillcolor="#f3c5a4"] ;
999 -> 1001 ;
1002 [label="Env4 <= 0.875\nmse = 0.616\nsamples = 991\nvalue = 34.337", fillcolor="#f4c8a8"] ;
990 -> 1002 ;
1003 [label="Env3 <= 34.835\nmse = 0.609\nsamples = 136\nvalue = 34.143", fillcolor="#f4c9aa"] ;
1002 -> 1003 ;
1004 [label="Env6 <= 35.455\nmse = 0.541\nsamples = 28\nvalue = 34.532", fillcolor="#f3c7a7"] ;
1003 -> 1004 ;
1005 [label="(...)", fillcolor="#C0C0C0"] ;
1004 -> 1005 ;
1008 [label="(...)", fillcolor="#C0C0C0"] ;
1004 -> 1008 ;
1009 [label="Env7 <= 70.72\nmse = 0.573\nsamples = 108\nvalue = 34.031", fillcolor="#f4caab"] ;
1003 -> 1009 ;
1010 [label="(...)", fillcolor="#C0C0C0"] ;
1009 -> 1010 ;
1013 [label="(...)", fillcolor="#C0C0C0"] ;
1009 -> 1013 ;
1016 [label="Env5 <= 7.055\nmse = 0.611\nsamples = 855\nvalue = 34.365", fillcolor="#f4c8a8"] ;
1002 -> 1016 ;
1017 [label="Env6 <= 35.485\nmse = 0.586\nsamples = 704\nvalue = 34.399", fillcolor="#f4c8a8"] ;
1016 -> 1017 ;
1018 [label="(...)", fillcolor="#C0C0C0"] ;
1017 -> 1018 ;
1021 [label="(...)", fillcolor="#C0C0C0"] ;
1017 -> 1021 ;
1024 [label="현재값 <= 63.56\nmse = 0.696\nsamples = 151\nvalue = 34.212", fillcolor="#f4c9aa"] ;
1016 -> 1024 ;
1025 [label="(...)", fillcolor="#C0C0C0"] ;
1024 -> 1025 ;
1028 [label="(...)", fillcolor="#C0C0C0"] ;
1024 -> 1028 ;
1029 [label="Env3 <= 35.045\nmse = 0.25\nsamples = 759\nvalue = 34.552", fillcolor="#f3c7a6"] ;
989 -> 1029 ;
1030 [label="Env1 <= 0.325\nmse = 0.272\nsamples = 446\nvalue = 34.451", fillcolor="#f3c7a7"] ;
1029 -> 1030 ;
1031 [label="현재값 <= 61.28\nmse = 0.426\nsamples = 112\nvalue = 34.266", fillcolor="#f4c8a9"] ;
1030 -> 1031 ;
1032 [label="Env7 <= 71.03\nmse = 0.492\nsamples = 49\nvalue = 34.031", fillcolor="#f4caab"] ;
1031 -> 1032 ;
1033 [label="(...)", fillcolor="#C0C0C0"] ;
1032 -> 1033 ;
1036 [label="(...)", fillcolor="#C0C0C0"] ;
1032 -> 1036 ;
1037 [label="Env6 <= 34.995\nmse = 0.294\nsamples = 63\nvalue = 34.454", fillcolor="#f3c7a7"] ;
1031 -> 1037 ;
1038 [label="(...)", fillcolor="#C0C0C0"] ;
1037 -> 1038 ;
1039 [label="(...)", fillcolor="#C0C0C0"] ;
1037 -> 1039 ;
1042 [label="Reward <= 3.66\nmse = 0.206\nsamples = 334\nvalue = 34.512", fillcolor="#f3c7a7"] ;
1030 -> 1042 ;
1043 [label="Reward <= -1.105\nmse = 0.211\nsamples = 307\nvalue = 34.482", fillcolor="#f3c7a7"] ;
1042 -> 1043 ;
1044 [label="(...)", fillcolor="#C0C0C0"] ;
1043 -> 1044 ;
1047 [label="(...)", fillcolor="#C0C0C0"] ;
1043 -> 1047 ;
1050 [label="Reward <= 4.505\nmse = 0.006\nsamples = 27\nvalue = 34.869", fillcolor="#f3c5a3"] ;
1042 -> 1050 ;
1051 [label="(...)", fillcolor="#C0C0C0"] ;
1050 -> 1051 ;
1054 [label="(...)", fillcolor="#C0C0C0"] ;
1050 -> 1054 ;
1055 [label="현재값 <= 59.6\nmse = 0.182\nsamples = 313\nvalue = 34.697", fillcolor="#f3c6a5"] ;
1029 -> 1055 ;
1056 [label="현재값 <= 58.385\nmse = 0.185\nsamples = 149\nvalue = 34.817", fillcolor="#f3c5a4"] ;
1055 -> 1056 ;
1057 [label="Env5 <= 6.995\nmse = 0.194\nsamples = 26\nvalue = 34.575", fillcolor="#f3c6a6"] ;
1056 -> 1057 ;
1058 [label="(...)", fillcolor="#C0C0C0"] ;
1057 -> 1058 ;
1059 [label="(...)", fillcolor="#C0C0C0"] ;
1057 -> 1059 ;
1062 [label="Env6 <= 34.78\nmse = 0.165\nsamples = 123\nvalue = 34.875", fillcolor="#f3c5a3"] ;
1056 -> 1062 ;
1063 [label="(...)", fillcolor="#C0C0C0"] ;
1062 -> 1063 ;
1066 [label="(...)", fillcolor="#C0C0C0"] ;
1062 -> 1066 ;
1069 [label="Reward <= 2.86\nmse = 0.155\nsamples = 164\nvalue = 34.589", fillcolor="#f3c6a6"] ;
1055 -> 1069 ;
1070 [label="현재값 <= 61.625\nmse = 0.156\nsamples = 140\nvalue = 34.537", fillcolor="#f3c7a7"] ;
1069 -> 1070 ;
1071 [label="(...)", fillcolor="#C0C0C0"] ;
1070 -> 1071 ;
1074 [label="(...)", fillcolor="#C0C0C0"] ;
1070 -> 1074 ;
1077 [label="Reward <= 3.79\nmse = 0.004\nsamples = 24\nvalue = 34.947", fillcolor="#f3c4a3"] ;
1069 -> 1077 ;
1078 [label="(...)", fillcolor="#C0C0C0"] ;
1077 -> 1078 ;
1081 [label="(...)", fillcolor="#C0C0C0"] ;
1077 -> 1081 ;
1082 [label="Env2 <= 1.015\nmse = 0.316\nsamples = 14118\nvalue = 36.099", fillcolor="#f1bd98"] ;
776 -> 1082 ;
1083 [label="Env4 <= 1.365\nmse = 0.231\nsamples = 8127\nvalue = 36.387", fillcolor="#f1bc95"] ;
1082 -> 1083 ;
1084 [label="Env1 <= 0.755\nmse = 0.125\nsamples = 6050\nvalue = 36.234", fillcolor="#f1bd97"] ;
1083 -> 1084 ;
1085 [label="Env3 <= 35.165\nmse = 0.09\nsamples = 6014\nvalue = 36.246", fillcolor="#f1bc96"] ;
1084 -> 1085 ;
1086 [label="Env4 <= 1.175\nmse = 0.072\nsamples = 5924\nvalue = 36.23", fillcolor="#f1bd97"] ;
1085 -> 1086 ;
1087 [label="Env7 <= 70.85\nmse = 0.069\nsamples = 1261\nvalue = 35.975", fillcolor="#f2be99"] ;
1086 -> 1087 ;
1088 [label="Env3 <= 34.215\nmse = 0.037\nsamples = 1216\nvalue = 36.009", fillcolor="#f2be99"] ;
1087 -> 1088 ;
1089 [label="(...)", fillcolor="#C0C0C0"] ;
1088 -> 1089 ;
1092 [label="(...)", fillcolor="#C0C0C0"] ;
1088 -> 1092 ;
1095 [label="Env4 <= 1.04\nmse = 0.085\nsamples = 45\nvalue = 35.076", fillcolor="#f3c3a1"] ;
1087 -> 1095 ;
1096 [label="(...)", fillcolor="#C0C0C0"] ;
1095 -> 1096 ;
1099 [label="(...)", fillcolor="#C0C0C0"] ;
1095 -> 1099 ;
1100 [label="Env3 <= 34.405\nmse = 0.051\nsamples = 4663\nvalue = 36.3", fillcolor="#f1bc96"] ;
1086 -> 1100 ;
1101 [label="Env4 <= 1.345\nmse = 0.035\nsamples = 2248\nvalue = 36.226", fillcolor="#f1bd97"] ;
1100 -> 1101 ;
1102 [label="(...)", fillcolor="#C0C0C0"] ;
1101 -> 1102 ;
1105 [label="(...)", fillcolor="#C0C0C0"] ;
1101 -> 1105 ;
1108 [label="Env5 <= 7.005\nmse = 0.055\nsamples = 2415\nvalue = 36.369", fillcolor="#f1bc95"] ;
1100 -> 1108 ;
1109 [label="(...)", fillcolor="#C0C0C0"] ;
1108 -> 1109 ;
1112 [label="(...)", fillcolor="#C0C0C0"] ;
1108 -> 1112 ;
1115 [label="Reward <= 4.44\nmse = 0.095\nsamples = 90\nvalue = 37.305", fillcolor="#f0b68c"] ;
1085 -> 1115 ;
1116 [label="mse = 0.101\nsamples = 11\nvalue = 36.678", fillcolor="#f1ba92"] ;
1115 -> 1116 ;
1117 [label="Env6 <= 33.205\nmse = 0.034\nsamples = 79\nvalue = 37.389", fillcolor="#f0b68c"] ;
1115 -> 1117 ;
1118 [label="Env6 <= 32.62\nmse = 0.004\nsamples = 24\nvalue = 37.59", fillcolor="#f0b48a"] ;
1117 -> 1118 ;
1119 [label="(...)", fillcolor="#C0C0C0"] ;
1118 -> 1119 ;
1120 [label="(...)", fillcolor="#C0C0C0"] ;
1118 -> 1120 ;
1121 [label="Env6 <= 33.805\nmse = 0.021\nsamples = 55\nvalue = 37.296", fillcolor="#f0b68d"] ;
1117 -> 1121 ;
1122 [label="(...)", fillcolor="#C0C0C0"] ;
1121 -> 1122 ;
1125 [label="(...)", fillcolor="#C0C0C0"] ;
1121 -> 1125 ;
1128 [label="Env4 <= 1.185\nmse = 1.51\nsamples = 36\nvalue = 34.182", fillcolor="#f4c9aa"] ;
1084 -> 1128 ;
1129 [label="mse = 1.583\nsamples = 8\nvalue = 32.882", fillcolor="#f5d1b6"] ;
1128 -> 1129 ;
1130 [label="Target <= 57.5\nmse = 0.52\nsamples = 28\nvalue = 34.708", fillcolor="#f3c6a5"] ;
1128 -> 1130 ;
1131 [label="mse = 0.026\nsamples = 8\nvalue = 35.887", fillcolor="#f2bf9a"] ;
1130 -> 1131 ;
1132 [label="Env1 <= 0.915\nmse = 0.028\nsamples = 20\nvalue = 34.29", fillcolor="#f4c8a9"] ;
1130 -> 1132 ;
1133 [label="mse = 0.002\nsamples = 12\nvalue = 34.396", fillcolor="#f4c8a8"] ;
1132 -> 1133 ;
1134 [label="mse = 0.027\nsamples = 8\nvalue = 34.144", fillcolor="#f4c9aa"] ;
1132 -> 1134 ;
1135 [label="Reward <= -1.555\nmse = 0.274\nsamples = 2077\nvalue = 36.83", fillcolor="#f1b991"] ;
1083 -> 1135 ;
1136 [label="Env7 <= 69.085\nmse = 0.246\nsamples = 943\nvalue = 37.23", fillcolor="#f0b78d"] ;
1135 -> 1136 ;
1137 [label="Env7 <= 68.945\nmse = 0.13\nsamples = 309\nvalue = 36.698", fillcolor="#f1ba92"] ;
1136 -> 1137 ;
1138 [label="Env3 <= 34.495\nmse = 0.036\nsamples = 176\nvalue = 36.474", fillcolor="#f1bb94"] ;
1137 -> 1138 ;
1139 [label="Env6 <= 32.58\nmse = 0.023\nsamples = 50\nvalue = 36.269", fillcolor="#f1bc96"] ;
1138 -> 1139 ;
1140 [label="(...)", fillcolor="#C0C0C0"] ;
1139 -> 1140 ;
1141 [label="(...)", fillcolor="#C0C0C0"] ;
1139 -> 1141 ;
1144 [label="Env4 <= 1.395\nmse = 0.02\nsamples = 126\nvalue = 36.549", fillcolor="#f1bb94"] ;
1138 -> 1144 ;
1145 [label="(...)", fillcolor="#C0C0C0"] ;
1144 -> 1145 ;
1148 [label="(...)", fillcolor="#C0C0C0"] ;
1144 -> 1148 ;
1151 [label="Env2 <= 0.93\nmse = 0.107\nsamples = 133\nvalue = 36.976", fillcolor="#f0b890"] ;
1137 -> 1151 ;
1152 [label="현재값 <= 60.175\nmse = 0.031\nsamples = 108\nvalue = 37.112", fillcolor="#f0b78e"] ;
1151 -> 1152 ;
1153 [label="(...)", fillcolor="#C0C0C0"] ;
1152 -> 1153 ;
1154 [label="(...)", fillcolor="#C0C0C0"] ;
1152 -> 1154 ;
1157 [label="Env3 <= 34.71\nmse = 0.016\nsamples = 25\nvalue = 36.394", fillcolor="#f1bc95"] ;
1151 -> 1157 ;
1158 [label="(...)", fillcolor="#C0C0C0"] ;
1157 -> 1158 ;
1159 [label="(...)", fillcolor="#C0C0C0"] ;
1157 -> 1159 ;
1162 [label="Env4 <= 1.485\nmse = 0.087\nsamples = 634\nvalue = 37.501", fillcolor="#f0b58b"] ;
1136 -> 1162 ;
1163 [label="Env6 <= 33.54\nmse = 0.059\nsamples = 274\nvalue = 37.228", fillcolor="#f0b78d"] ;
1162 -> 1163 ;
1164 [label="Env1 <= 0.625\nmse = 0.02\nsamples = 32\nvalue = 36.668", fillcolor="#f1ba92"] ;
1163 -> 1164 ;
1165 [label="(...)", fillcolor="#C0C0C0"] ;
1164 -> 1165 ;
1166 [label="(...)", fillcolor="#C0C0C0"] ;
1164 -> 1166 ;
1169 [label="Env7 <= 69.215\nmse = 0.016\nsamples = 242\nvalue = 37.305", fillcolor="#f0b68c"] ;
1163 -> 1169 ;
1170 [label="(...)", fillcolor="#C0C0C0"] ;
1169 -> 1170 ;
1173 [label="(...)", fillcolor="#C0C0C0"] ;
1169 -> 1173 ;
1176 [label="Env3 <= 34.845\nmse = 0.017\nsamples = 360\nvalue = 37.695", fillcolor="#efb489"] ;
1162 -> 1176 ;
1177 [label="Env4 <= 1.515\nmse = 0.004\nsamples = 168\nvalue = 37.568", fillcolor="#f0b58a"] ;
1176 -> 1177 ;
1178 [label="(...)", fillcolor="#C0C0C0"] ;
1177 -> 1178 ;
1181 [label="(...)", fillcolor="#C0C0C0"] ;
1177 -> 1181 ;
1184 [label="Env4 <= 1.575\nmse = 0.004\nsamples = 192\nvalue = 37.797", fillcolor="#efb388"] ;
1176 -> 1184 ;
1185 [label="(...)", fillcolor="#C0C0C0"] ;
1184 -> 1185 ;
1188 [label="(...)", fillcolor="#C0C0C0"] ;
1184 -> 1188 ;
1191 [label="Env3 <= 35.0\nmse = 0.046\nsamples = 1134\nvalue = 36.491", fillcolor="#f1bb94"] ;
1135 -> 1191 ;
1192 [label="Env6 <= 34.46\nmse = 0.028\nsamples = 1073\nvalue = 36.462", fillcolor="#f1bb94"] ;
1191 -> 1192 ;
1193 [label="Env6 <= 31.79\nmse = 0.023\nsamples = 1037\nvalue = 36.477", fillcolor="#f1bb94"] ;
1192 -> 1193 ;
1194 [label="Env3 <= 34.575\nmse = 0.011\nsamples = 97\nvalue = 36.649", fillcolor="#f1ba93"] ;
1193 -> 1194 ;
1195 [label="(...)", fillcolor="#C0C0C0"] ;
1194 -> 1195 ;
1198 [label="(...)", fillcolor="#C0C0C0"] ;
1194 -> 1198 ;
1201 [label="Reward <= 2.83\nmse = 0.021\nsamples = 940\nvalue = 36.46", fillcolor="#f1bb94"] ;
1193 -> 1201 ;
1202 [label="(...)", fillcolor="#C0C0C0"] ;
1201 -> 1202 ;
1205 [label="(...)", fillcolor="#C0C0C0"] ;
1201 -> 1205 ;
1208 [label="현재값 <= 62.625\nmse = 0.006\nsamples = 36\nvalue = 36.058", fillcolor="#f2be98"] ;
1192 -> 1208 ;
1209 [label="mse = 0.015\nsamples = 13\nvalue = 36.017", fillcolor="#f2be99"] ;
1208 -> 1209 ;
1210 [label="Env7 <= 68.87\nmse = 0.001\nsamples = 23\nvalue = 36.077", fillcolor="#f1bd98"] ;
1208 -> 1210 ;
1211 [label="(...)", fillcolor="#C0C0C0"] ;
1210 -> 1211 ;
1212 [label="(...)", fillcolor="#C0C0C0"] ;
1210 -> 1212 ;
1213 [label="Env3 <= 35.35\nmse = 0.097\nsamples = 61\nvalue = 37.001", fillcolor="#f0b88f"] ;
1191 -> 1213 ;
1214 [label="Env7 <= 68.38\nmse = 0.004\nsamples = 50\nvalue = 36.877", fillcolor="#f0b990"] ;
1213 -> 1214 ;
1215 [label="mse = 0.01\nsamples = 10\nvalue = 36.79", fillcolor="#f1b991"] ;
1214 -> 1215 ;
1216 [label="현재값 <= 60.845\nmse = 0.001\nsamples = 40\nvalue = 36.895", fillcolor="#f0b990"] ;
1214 -> 1216 ;
1217 [label="(...)", fillcolor="#C0C0C0"] ;
1216 -> 1217 ;
1218 [label="(...)", fillcolor="#C0C0C0"] ;
1216 -> 1218 ;
1221 [label="mse = 0.147\nsamples = 11\nvalue = 37.532", fillcolor="#f0b58a"] ;
1213 -> 1221 ;
1222 [label="Env1 <= 0.755\nmse = 0.168\nsamples = 5991\nvalue = 35.711", fillcolor="#f2c09b"] ;
1082 -> 1222 ;
1223 [label="Env4 <= 1.375\nmse = 0.087\nsamples = 5870\nvalue = 35.746", fillcolor="#f2bf9b"] ;
1222 -> 1223 ;
1224 [label="Env4 <= 1.255\nmse = 0.056\nsamples = 4763\nvalue = 35.679", fillcolor="#f2c09c"] ;
1223 -> 1224 ;
1225 [label="Env4 <= 0.965\nmse = 0.046\nsamples = 1815\nvalue = 35.565", fillcolor="#f2c19d"] ;
1224 -> 1225 ;
1226 [label="Env7 <= 70.33\nmse = 0.185\nsamples = 62\nvalue = 35.117", fillcolor="#f3c3a1"] ;
1225 -> 1226 ;
1227 [label="mse = 0.357\nsamples = 8\nvalue = 34.331", fillcolor="#f4c8a8"] ;
1226 -> 1227 ;
1228 [label="Env3 <= 35.315\nmse = 0.064\nsamples = 54\nvalue = 35.226", fillcolor="#f3c3a0"] ;
1226 -> 1228 ;
1229 [label="(...)", fillcolor="#C0C0C0"] ;
1228 -> 1229 ;
1230 [label="(...)", fillcolor="#C0C0C0"] ;
1228 -> 1230 ;
1233 [label="Env6 <= 32.175\nmse = 0.032\nsamples = 1753\nvalue = 35.582", fillcolor="#f2c09d"] ;
1225 -> 1233 ;
1234 [label="현재값 <= 60.26\nmse = 0.08\nsamples = 25\nvalue = 34.958", fillcolor="#f3c4a3"] ;
1233 -> 1234 ;
1235 [label="(...)", fillcolor="#C0C0C0"] ;
1234 -> 1235 ;
1236 [label="(...)", fillcolor="#C0C0C0"] ;
1234 -> 1236 ;
1237 [label="Env7 <= 70.855\nmse = 0.027\nsamples = 1728\nvalue = 35.59", fillcolor="#f2c09d"] ;
1233 -> 1237 ;
1238 [label="(...)", fillcolor="#C0C0C0"] ;
1237 -> 1238 ;
1241 [label="(...)", fillcolor="#C0C0C0"] ;
1237 -> 1241 ;
1244 [label="Env3 <= 34.575\nmse = 0.049\nsamples = 2948\nvalue = 35.748", fillcolor="#f2bf9b"] ;
1224 -> 1244 ;
1245 [label="Env7 <= 68.635\nmse = 0.028\nsamples = 2739\nvalue = 35.719", fillcolor="#f2c09b"] ;
1244 -> 1245 ;
1246 [label="Env6 <= 35.285\nmse = 0.039\nsamples = 138\nvalue = 35.934", fillcolor="#f2be99"] ;
1245 -> 1246 ;
1247 [label="(...)", fillcolor="#C0C0C0"] ;
1246 -> 1247 ;
1250 [label="(...)", fillcolor="#C0C0C0"] ;
1246 -> 1250 ;
1253 [label="현재값 <= 62.385\nmse = 0.025\nsamples = 2601\nvalue = 35.708", fillcolor="#f2c09c"] ;
1245 -> 1253 ;
1254 [label="(...)", fillcolor="#C0C0C0"] ;
1253 -> 1254 ;
1257 [label="(...)", fillcolor="#C0C0C0"] ;
1253 -> 1257 ;
1260 [label="Env6 <= 35.27\nmse = 0.171\nsamples = 209\nvalue = 36.127", fillcolor="#f1bd98"] ;
1244 -> 1260 ;
1261 [label="Env6 <= 33.195\nmse = 0.096\nsamples = 132\nvalue = 36.375", fillcolor="#f1bc95"] ;
1260 -> 1261 ;
1262 [label="(...)", fillcolor="#C0C0C0"] ;
1261 -> 1262 ;
1265 [label="(...)", fillcolor="#C0C0C0"] ;
1261 -> 1265 ;
1268 [label="Env3 <= 35.06\nmse = 0.012\nsamples = 77\nvalue = 35.701", fillcolor="#f2c09c"] ;
1260 -> 1268 ;
1269 [label="(...)", fillcolor="#C0C0C0"] ;
1268 -> 1269 ;
1272 [label="(...)", fillcolor="#C0C0C0"] ;
1268 -> 1272 ;
1273 [label="Env6 <= 34.825\nmse = 0.115\nsamples = 1107\nvalue = 36.042", fillcolor="#f2be98"] ;
1223 -> 1273 ;
1274 [label="Env6 <= 33.615\nmse = 0.065\nsamples = 381\nvalue = 36.398", fillcolor="#f1bc95"] ;
1273 -> 1274 ;
1275 [label="Env7 <= 69.74\nmse = 0.029\nsamples = 128\nvalue = 36.571", fillcolor="#f1bb93"] ;
1274 -> 1275 ;
1276 [label="Reward <= -0.925\nmse = 0.011\nsamples = 115\nvalue = 36.528", fillcolor="#f1bb94"] ;
1275 -> 1276 ;
1277 [label="(...)", fillcolor="#C0C0C0"] ;
1276 -> 1277 ;
1280 [label="(...)", fillcolor="#C0C0C0"] ;
1276 -> 1280 ;
1283 [label="mse = 0.002\nsamples = 13\nvalue = 36.992", fillcolor="#f0b88f"] ;
1275 -> 1283 ;
1284 [label="현재값 <= 62.425\nmse = 0.061\nsamples = 253\nvalue = 36.306", fillcolor="#f1bc96"] ;
1274 -> 1284 ;
1285 [label="Env4 <= 1.44\nmse = 0.037\nsamples = 131\nvalue = 36.144", fillcolor="#f1bd97"] ;
1284 -> 1285 ;
1286 [label="(...)", fillcolor="#C0C0C0"] ;
1285 -> 1286 ;
1289 [label="(...)", fillcolor="#C0C0C0"] ;
1285 -> 1289 ;
1290 [label="Env7 <= 69.16\nmse = 0.03\nsamples = 122\nvalue = 36.475", fillcolor="#f1bb94"] ;
1284 -> 1290 ;
1291 [label="(...)", fillcolor="#C0C0C0"] ;
1290 -> 1291 ;
1294 [label="(...)", fillcolor="#C0C0C0"] ;
1290 -> 1294 ;
1297 [label="Env3 <= 34.685\nmse = 0.04\nsamples = 726\nvalue = 35.856", fillcolor="#f2bf9a"] ;
1273 -> 1297 ;
1298 [label="Env3 <= 34.345\nmse = 0.026\nsamples = 718\nvalue = 35.846", fillcolor="#f2bf9a"] ;
1297 -> 1298 ;
1299 [label="Env6 <= 35.405\nmse = 0.013\nsamples = 479\nvalue = 35.792", fillcolor="#f2bf9b"] ;
1298 -> 1299 ;
1300 [label="(...)", fillcolor="#C0C0C0"] ;
1299 -> 1300 ;
1303 [label="(...)", fillcolor="#C0C0C0"] ;
1299 -> 1303 ;
1306 [label="Reward <= -0.09\nmse = 0.034\nsamples = 239\nvalue = 35.953", fillcolor="#f2be99"] ;
1298 -> 1306 ;
1307 [label="(...)", fillcolor="#C0C0C0"] ;
1306 -> 1307 ;
1310 [label="(...)", fillcolor="#C0C0C0"] ;
1306 -> 1310 ;
1313 [label="mse = 0.417\nsamples = 8\nvalue = 36.752", fillcolor="#f1b992"] ;
1297 -> 1313 ;
1314 [label="Env7 <= 68.405\nmse = 1.295\nsamples = 121\nvalue = 34.078", fillcolor="#f4c9ab"] ;
1222 -> 1314 ;
1315 [label="Env6 <= 32.58\nmse = 0.293\nsamples = 17\nvalue = 31.888", fillcolor="#f7d7c0"] ;
1314 -> 1315 ;
1316 [label="mse = 0.209\nsamples = 8\nvalue = 31.468", fillcolor="#f7d9c3"] ;
1315 -> 1316 ;
1317 [label="mse = 0.16\nsamples = 9\nvalue = 32.159", fillcolor="#f6d5bd"] ;
1315 -> 1317 ;
1318 [label="Target <= 57.5\nmse = 0.539\nsamples = 104\nvalue = 34.439", fillcolor="#f4c7a7"] ;
1314 -> 1318 ;
1319 [label="현재값 <= 57.82\nmse = 0.013\nsamples = 19\nvalue = 35.846", fillcolor="#f2bf9a"] ;
1318 -> 1319 ;
1320 [label="mse = 0.013\nsamples = 9\nvalue = 35.757", fillcolor="#f2bf9b"] ;
1319 -> 1320 ;
1321 [label="mse = 0.003\nsamples = 10\nvalue = 35.912", fillcolor="#f2be9a"] ;
1319 -> 1321 ;
1322 [label="Env7 <= 69.22\nmse = 0.175\nsamples = 85\nvalue = 34.161", fillcolor="#f4c9aa"] ;
1318 -> 1322 ;
1323 [label="현재값 <= 57.85\nmse = 0.615\nsamples = 22\nvalue = 33.866", fillcolor="#f4cbad"] ;
1322 -> 1323 ;
1324 [label="mse = 0.306\nsamples = 14\nvalue = 34.196", fillcolor="#f4c9aa"] ;
1323 -> 1324 ;
1325 [label="mse = 0.686\nsamples = 8\nvalue = 33.409", fillcolor="#f5cdb1"] ;
1323 -> 1325 ;
1326 [label="Env5 <= 7.025\nmse = 0.021\nsamples = 63\nvalue = 34.244", fillcolor="#f4c8a9"] ;
1322 -> 1326 ;
1327 [label="Reward <= -1.34\nmse = 0.007\nsamples = 43\nvalue = 34.334", fillcolor="#f4c8a8"] ;
1326 -> 1327 ;
1328 [label="(...)", fillcolor="#C0C0C0"] ;
1327 -> 1328 ;
1331 [label="(...)", fillcolor="#C0C0C0"] ;
1327 -> 1331 ;
1332 [label="Env4 <= 1.245\nmse = 0.008\nsamples = 20\nvalue = 34.09", fillcolor="#f4c9ab"] ;
1326 -> 1332 ;
1333 [label="(...)", fillcolor="#C0C0C0"] ;
1332 -> 1333 ;
1334 [label="(...)", fillcolor="#C0C0C0"] ;
1332 -> 1334 ;
1335 [label="Target <= 61.0\nmse = 1.278\nsamples = 36732\nvalue = 36.644", fillcolor="#f1ba93"] ;
775 -> 1335 ;
1336 [label="Env3 <= 37.535\nmse = 0.991\nsamples = 30136\nvalue = 36.34", fillcolor="#f1bc96"] ;
1335 -> 1336 ;
1337 [label="Env2 <= 0.855\nmse = 0.486\nsamples = 22706\nvalue = 36.044", fillcolor="#f2be98"] ;
1336 -> 1337 ;
1338 [label="Env6 <= 34.715\nmse = 0.098\nsamples = 5242\nvalue = 36.536", fillcolor="#f1bb94"] ;
1337 -> 1338 ;
1339 [label="Env2 <= 0.705\nmse = 0.072\nsamples = 2254\nvalue = 36.382", fillcolor="#f1bc95"] ;
1338 -> 1339 ;
1340 [label="Reward <= 10.95\nmse = 0.058\nsamples = 1282\nvalue = 36.267", fillcolor="#f1bc96"] ;
1339 -> 1340 ;
1341 [label="Env2 <= 0.585\nmse = 0.051\nsamples = 1252\nvalue = 36.254", fillcolor="#f1bc96"] ;
1340 -> 1341 ;
1342 [label="현재값 <= 57.57\nmse = 0.124\nsamples = 244\nvalue = 36.062", fillcolor="#f1be98"] ;
1341 -> 1342 ;
1343 [label="(...)", fillcolor="#C0C0C0"] ;
1342 -> 1343 ;
1346 [label="(...)", fillcolor="#C0C0C0"] ;
1342 -> 1346 ;
1349 [label="Env4 <= 1.445\nmse = 0.022\nsamples = 1008\nvalue = 36.301", fillcolor="#f1bc96"] ;
1341 -> 1349 ;
1350 [label="(...)", fillcolor="#C0C0C0"] ;
1349 -> 1350 ;
1353 [label="(...)", fillcolor="#C0C0C0"] ;
1349 -> 1353 ;
1356 [label="Env3 <= 37.235\nmse = 0.088\nsamples = 30\nvalue = 36.762", fillcolor="#f1b992"] ;
1340 -> 1356 ;
1357 [label="Env7 <= 70.26\nmse = 0.069\nsamples = 20\nvalue = 36.832", fillcolor="#f1b991"] ;
1356 -> 1357 ;
1358 [label="(...)", fillcolor="#C0C0C0"] ;
1357 -> 1358 ;
1359 [label="(...)", fillcolor="#C0C0C0"] ;
1357 -> 1359 ;
1360 [label="mse = 0.098\nsamples = 10\nvalue = 36.626", fillcolor="#f1ba93"] ;
1356 -> 1360 ;
1361 [label="Env4 <= 1.255\nmse = 0.051\nsamples = 972\nvalue = 36.534", fillcolor="#f1bb94"] ;
1339 -> 1361 ;
1362 [label="Env1 <= 0.255\nmse = 0.029\nsamples = 208\nvalue = 36.283", fillcolor="#f1bc96"] ;
1361 -> 1362 ;
1363 [label="Env3 <= 37.165\nmse = 0.018\nsamples = 88\nvalue = 36.365", fillcolor="#f1bc95"] ;
1362 -> 1363 ;
1364 [label="(...)", fillcolor="#C0C0C0"] ;
1363 -> 1364 ;
1367 [label="(...)", fillcolor="#C0C0C0"] ;
1363 -> 1367 ;
1368 [label="현재값 <= 61.19\nmse = 0.03\nsamples = 120\nvalue = 36.224", fillcolor="#f1bd97"] ;
1362 -> 1368 ;
1369 [label="(...)", fillcolor="#C0C0C0"] ;
1368 -> 1369 ;
1372 [label="(...)", fillcolor="#C0C0C0"] ;
1368 -> 1372 ;
1375 [label="Env1 <= 0.225\nmse = 0.035\nsamples = 764\nvalue = 36.603", fillcolor="#f1ba93"] ;
1361 -> 1375 ;
1376 [label="Env4 <= 1.425\nmse = 0.028\nsamples = 176\nvalue = 36.447", fillcolor="#f1bb95"] ;
1375 -> 1376 ;
1377 [label="(...)", fillcolor="#C0C0C0"] ;
1376 -> 1377 ;
1380 [label="(...)", fillcolor="#C0C0C0"] ;
1376 -> 1380 ;
1383 [label="Env6 <= 34.395\nmse = 0.028\nsamples = 588\nvalue = 36.649", fillcolor="#f1ba93"] ;
1375 -> 1383 ;
1384 [label="(...)", fillcolor="#C0C0C0"] ;
1383 -> 1384 ;
1387 [label="(...)", fillcolor="#C0C0C0"] ;
1383 -> 1387 ;
1390 [label="Env1 <= 0.005\nmse = 0.085\nsamples = 2988\nvalue = 36.654", fillcolor="#f1ba93"] ;
1338 -> 1390 ;
1391 [label="현재값 <= 64.985\nmse = 0.078\nsamples = 1108\nvalue = 36.474", fillcolor="#f1bb94"] ;
1390 -> 1391 ;
1392 [label="Env7 <= 70.345\nmse = 0.042\nsamples = 951\nvalue = 36.404", fillcolor="#f1bc95"] ;
1391 -> 1392 ;
1393 [label="Env4 <= 1.415\nmse = 0.03\nsamples = 766\nvalue = 36.375", fillcolor="#f1bc95"] ;
1392 -> 1393 ;
1394 [label="(...)", fillcolor="#C0C0C0"] ;
1393 -> 1394 ;
1397 [label="(...)", fillcolor="#C0C0C0"] ;
1393 -> 1397 ;
1400 [label="Reward <= 1.015\nmse = 0.075\nsamples = 185\nvalue = 36.523", fillcolor="#f1bb94"] ;
1392 -> 1400 ;
1401 [label="(...)", fillcolor="#C0C0C0"] ;
1400 -> 1401 ;
1404 [label="(...)", fillcolor="#C0C0C0"] ;
1400 -> 1404 ;
1407 [label="Env6 <= 35.435\nmse = 0.085\nsamples = 157\nvalue = 36.903", fillcolor="#f0b990"] ;
1391 -> 1407 ;
1408 [label="Env2 <= 0.525\nmse = 0.048\nsamples = 20\nvalue = 36.396", fillcolor="#f1bc95"] ;
1407 -> 1408 ;
1409 [label="(...)", fillcolor="#C0C0C0"] ;
1408 -> 1409 ;
1410 [label="(...)", fillcolor="#C0C0C0"] ;
1408 -> 1410 ;
1411 [label="Env7 <= 71.955\nmse = 0.048\nsamples = 137\nvalue = 36.976", fillcolor="#f0b890"] ;
1407 -> 1411 ;
1412 [label="(...)", fillcolor="#C0C0C0"] ;
1411 -> 1412 ;
1415 [label="(...)", fillcolor="#C0C0C0"] ;
1411 -> 1415 ;
1418 [label="Env3 <= 36.265\nmse = 0.058\nsamples = 1880\nvalue = 36.759", fillcolor="#f1b992"] ;
1390 -> 1418 ;
1419 [label="Env6 <= 36.06\nmse = 0.037\nsamples = 65\nvalue = 35.977", fillcolor="#f2be99"] ;
1418 -> 1419 ;
1420 [label="mse = 0.012\nsamples = 14\nvalue = 36.251", fillcolor="#f1bc96"] ;
1419 -> 1420 ;
1421 [label="Env4 <= 1.445\nmse = 0.02\nsamples = 51\nvalue = 35.909", fillcolor="#f2be9a"] ;
1419 -> 1421 ;
1422 [label="(...)", fillcolor="#C0C0C0"] ;
1421 -> 1422 ;
1423 [label="(...)", fillcolor="#C0C0C0"] ;
1421 -> 1423 ;
1426 [label="Env6 <= 35.115\nmse = 0.035\nsamples = 1815\nvalue = 36.788", fillcolor="#f1b991"] ;
1418 -> 1426 ;
1427 [label="Env4 <= 1.365\nmse = 0.037\nsamples = 508\nvalue = 36.657", fillcolor="#f1ba93"] ;
1426 -> 1427 ;
1428 [label="(...)", fillcolor="#C0C0C0"] ;
1427 -> 1428 ;
1431 [label="(...)", fillcolor="#C0C0C0"] ;
1427 -> 1431 ;
1434 [label="Env7 <= 68.045\nmse = 0.025\nsamples = 1307\nvalue = 36.837", fillcolor="#f1b991"] ;
1426 -> 1434 ;
1435 [label="(...)", fillcolor="#C0C0C0"] ;
1434 -> 1435 ;
1438 [label="(...)", fillcolor="#C0C0C0"] ;
1434 -> 1438 ;
1441 [label="Env2 <= 1.175\nmse = 0.508\nsamples = 17464\nvalue = 35.893", fillcolor="#f2bf9a"] ;
1337 -> 1441 ;
1442 [label="Env1 <= 0.71\nmse = 0.212\nsamples = 9689\nvalue = 35.566", fillcolor="#f2c19d"] ;
1441 -> 1442 ;
1443 [label="Env3 <= 36.225\nmse = 0.124\nsamples = 6320\nvalue = 35.73", fillcolor="#f2c09b"] ;
1442 -> 1443 ;
1444 [label="Env1 <= 0.475\nmse = 0.088\nsamples = 5193\nvalue = 35.654", fillcolor="#f2c09c"] ;
1443 -> 1444 ;
1445 [label="현재값 <= 62.435\nmse = 0.404\nsamples = 159\nvalue = 34.968", fillcolor="#f3c4a2"] ;
1444 -> 1445 ;
1446 [label="(...)", fillcolor="#C0C0C0"] ;
1445 -> 1446 ;
1449 [label="(...)", fillcolor="#C0C0C0"] ;
1445 -> 1449 ;
1452 [label="Env4 <= 1.095\nmse = 0.063\nsamples = 5034\nvalue = 35.675", fillcolor="#f2c09c"] ;
1444 -> 1452 ;
1453 [label="(...)", fillcolor="#C0C0C0"] ;
1452 -> 1453 ;
1456 [label="(...)", fillcolor="#C0C0C0"] ;
1452 -> 1456 ;
1459 [label="Env4 <= 0.975\nmse = 0.133\nsamples = 1127\nvalue = 36.093", fillcolor="#f1bd98"] ;
1443 -> 1459 ;
1460 [label="Env6 <= 36.275\nmse = 0.059\nsamples = 665\nvalue = 35.931", fillcolor="#f2be99"] ;
1459 -> 1460 ;
1461 [label="(...)", fillcolor="#C0C0C0"] ;
1460 -> 1461 ;
1464 [label="(...)", fillcolor="#C0C0C0"] ;
1460 -> 1464 ;
1467 [label="Env1 <= 0.605\nmse = 0.149\nsamples = 462\nvalue = 36.321", fillcolor="#f1bc96"] ;
1459 -> 1467 ;
1468 [label="(...)", fillcolor="#C0C0C0"] ;
1467 -> 1468 ;
1471 [label="(...)", fillcolor="#C0C0C0"] ;
1467 -> 1471 ;
1474 [label="Env1 <= 1.085\nmse = 0.232\nsamples = 3369\nvalue = 35.258", fillcolor="#f2c2a0"] ;
1442 -> 1474 ;
1475 [label="Env4 <= 1.265\nmse = 0.182\nsamples = 2297\nvalue = 35.077", fillcolor="#f3c3a1"] ;
1474 -> 1475 ;
1476 [label="Env3 <= 36.945\nmse = 0.102\nsamples = 2268\nvalue = 35.11", fillcolor="#f3c3a1"] ;
1475 -> 1476 ;
1477 [label="(...)", fillcolor="#C0C0C0"] ;
1476 -> 1477 ;
1480 [label="(...)", fillcolor="#C0C0C0"] ;
1476 -> 1480 ;
1483 [label="Env6 <= 32.475\nmse = 0.485\nsamples = 29\nvalue = 32.786", fillcolor="#f6d1b7"] ;
1475 -> 1483 ;
1484 [label="(...)", fillcolor="#C0C0C0"] ;
1483 -> 1484 ;
1487 [label="(...)", fillcolor="#C0C0C0"] ;
1483 -> 1487 ;
1488 [label="Env4 <= 1.065\nmse = 0.113\nsamples = 1072\nvalue = 35.655", fillcolor="#f2c09c"] ;
1474 -> 1488 ;
1489 [label="Env6 <= 36.955\nmse = 0.075\nsamples = 1033\nvalue = 35.69", fillcolor="#f2c09c"] ;
1488 -> 1489 ;
1490 [label="(...)", fillcolor="#C0C0C0"] ;
1489 -> 1490 ;
1493 [label="(...)", fillcolor="#C0C0C0"] ;
1489 -> 1493 ;
1494 [label="Env4 <= 1.165\nmse = 0.284\nsamples = 39\nvalue = 34.81", fillcolor="#f3c5a4"] ;
1488 -> 1494 ;
1495 [label="(...)", fillcolor="#C0C0C0"] ;
1494 -> 1495 ;
1498 [label="(...)", fillcolor="#C0C0C0"] ;
1494 -> 1498 ;
1499 [label="Env7 <= 69.925\nmse = 0.579\nsamples = 7775\nvalue = 36.3", fillcolor="#f1bc96"] ;
1441 -> 1499 ;
1500 [label="Env5 <= 7.045\nmse = 0.401\nsamples = 3975\nvalue = 35.955", fillcolor="#f2be99"] ;
1499 -> 1500 ;
1501 [label="Env4 <= 1.06\nmse = 0.137\nsamples = 3724\nvalue = 35.9", fillcolor="#f2bf9a"] ;
1500 -> 1501 ;
1502 [label="Env4 <= 0.94\nmse = 0.101\nsamples = 3636\nvalue = 35.929", fillcolor="#f2be99"] ;
1501 -> 1502 ;
1503 [label="(...)", fillcolor="#C0C0C0"] ;
1502 -> 1503 ;
1506 [label="(...)", fillcolor="#C0C0C0"] ;
1502 -> 1506 ;
1509 [label="Env4 <= 1.165\nmse = 0.215\nsamples = 88\nvalue = 34.723", fillcolor="#f3c6a5"] ;
1501 -> 1509 ;
1510 [label="(...)", fillcolor="#C0C0C0"] ;
1509 -> 1510 ;
1513 [label="(...)", fillcolor="#C0C0C0"] ;
1509 -> 1513 ;
1516 [label="Env6 <= 36.565\nmse = 3.532\nsamples = 251\nvalue = 36.742", fillcolor="#f1b992"] ;
1500 -> 1516 ;
1517 [label="Reward <= 11.17\nmse = 4.627\nsamples = 177\nvalue = 36.331", fillcolor="#f1bc96"] ;
1516 -> 1517 ;
1518 [label="(...)", fillcolor="#C0C0C0"] ;
1517 -> 1518 ;
1521 [label="(...)", fillcolor="#C0C0C0"] ;
1517 -> 1521 ;
1522 [label="Env1 <= 1.145\nmse = 0.194\nsamples = 74\nvalue = 37.593", fillcolor="#f0b48a"] ;
1516 -> 1522 ;
1523 [label="(...)", fillcolor="#C0C0C0"] ;
1522 -> 1523 ;
1526 [label="(...)", fillcolor="#C0C0C0"] ;
1522 -> 1526 ;
1529 [label="Env6 <= 36.125\nmse = 0.513\nsamples = 3800\nvalue = 36.656", fillcolor="#f1ba93"] ;
1499 -> 1529 ;
1530 [label="Env3 <= 36.935\nmse = 0.414\nsamples = 3086\nvalue = 36.516", fillcolor="#f1bb94"] ;
1529 -> 1530 ;
1531 [label="Env4 <= 0.88\nmse = 0.347\nsamples = 1583\nvalue = 36.354", fillcolor="#f1bc95"] ;
1530 -> 1531 ;
1532 [label="(...)", fillcolor="#C0C0C0"] ;
1531 -> 1532 ;
1535 [label="(...)", fillcolor="#C0C0C0"] ;
1531 -> 1535 ;
1538 [label="Env5 <= 6.915\nmse = 0.428\nsamples = 1503\nvalue = 36.689", fillcolor="#f1ba92"] ;
1530 -> 1538 ;
1539 [label="(...)", fillcolor="#C0C0C0"] ;
1538 -> 1539 ;
1542 [label="(...)", fillcolor="#C0C0C0"] ;
1538 -> 1542 ;
1545 [label="Env5 <= 7.005\nmse = 0.494\nsamples = 714\nvalue = 37.251", fillcolor="#f0b68d"] ;
1529 -> 1545 ;
1546 [label="Env1 <= 1.065\nmse = 0.36\nsamples = 202\nvalue = 36.591", fillcolor="#f1ba93"] ;
1545 -> 1546 ;
1547 [label="(...)", fillcolor="#C0C0C0"] ;
1546 -> 1547 ;
1550 [label="(...)", fillcolor="#C0C0C0"] ;
1546 -> 1550 ;
1553 [label="Env1 <= 1.045\nmse = 0.311\nsamples = 512\nvalue = 37.507", fillcolor="#f0b58b"] ;
1545 -> 1553 ;
1554 [label="(...)", fillcolor="#C0C0C0"] ;
1553 -> 1554 ;
1557 [label="(...)", fillcolor="#C0C0C0"] ;
1553 -> 1557 ;
1560 [label="Env7 <= 69.425\nmse = 1.449\nsamples = 7430\nvalue = 37.245", fillcolor="#f0b68d"] ;
1336 -> 1560 ;
1561 [label="Env5 <= 6.945\nmse = 0.293\nsamples = 2113\nvalue = 35.964", fillcolor="#f2be99"] ;
1560 -> 1561 ;
1562 [label="Env6 <= 34.545\nmse = 0.159\nsamples = 392\nvalue = 35.375", fillcolor="#f2c29f"] ;
1561 -> 1562 ;
1563 [label="Env4 <= 1.115\nmse = 0.115\nsamples = 362\nvalue = 35.32", fillcolor="#f2c29f"] ;
1562 -> 1563 ;
1564 [label="Env2 <= 1.125\nmse = 0.095\nsamples = 171\nvalue = 35.178", fillcolor="#f3c3a1"] ;
1563 -> 1564 ;
1565 [label="Env5 <= 6.915\nmse = 0.072\nsamples = 156\nvalue = 35.138", fillcolor="#f3c3a1"] ;
1564 -> 1565 ;
1566 [label="(...)", fillcolor="#C0C0C0"] ;
1565 -> 1566 ;
1569 [label="(...)", fillcolor="#C0C0C0"] ;
1565 -> 1569 ;
1572 [label="mse = 0.08\nsamples = 15\nvalue = 35.734", fillcolor="#f2c09b"] ;
1564 -> 1572 ;
1573 [label="Env5 <= 6.925\nmse = 0.095\nsamples = 191\nvalue = 35.462", fillcolor="#f2c19e"] ;
1563 -> 1573 ;
1574 [label="Env6 <= 32.58\nmse = 0.072\nsamples = 145\nvalue = 35.388", fillcolor="#f2c29f"] ;
1573 -> 1574 ;
1575 [label="(...)", fillcolor="#C0C0C0"] ;
1574 -> 1575 ;
1578 [label="(...)", fillcolor="#C0C0C0"] ;
1574 -> 1578 ;
1581 [label="Env2 <= 1.085\nmse = 0.093\nsamples = 46\nvalue = 35.708", fillcolor="#f2c09c"] ;
1573 -> 1581 ;
1582 [label="(...)", fillcolor="#C0C0C0"] ;
1581 -> 1582 ;
1585 [label="(...)", fillcolor="#C0C0C0"] ;
1581 -> 1585 ;
1588 [label="Env1 <= 0.635\nmse = 0.182\nsamples = 30\nvalue = 36.088", fillcolor="#f1bd98"] ;
1562 -> 1588 ;
1589 [label="Env4 <= 1.205\nmse = 0.102\nsamples = 22\nvalue = 35.877", fillcolor="#f2bf9a"] ;
1588 -> 1589 ;
1590 [label="mse = 0.064\nsamples = 13\nvalue = 35.697", fillcolor="#f2c09c"] ;
1589 -> 1590 ;
1591 [label="mse = 0.047\nsamples = 9\nvalue = 36.129", fillcolor="#f1bd98"] ;
1589 -> 1591 ;
1592 [label="mse = 0.149\nsamples = 8\nvalue = 36.369", fillcolor="#f1bc95"] ;
1588 -> 1592 ;
1593 [label="Env4 <= 0.755\nmse = 0.231\nsamples = 1721\nvalue = 36.089", fillcolor="#f1bd98"] ;
1561 -> 1593 ;
1594 [label="Env6 <= 35.425\nmse = 0.101\nsamples = 244\nvalue = 35.409", fillcolor="#f2c19e"] ;
1593 -> 1594 ;
1595 [label="mse = 1.055\nsamples = 9\nvalue = 36.224", fillcolor="#f1bd97"] ;
1594 -> 1595 ;
1596 [label="Env6 <= 35.985\nmse = 0.058\nsamples = 235\nvalue = 35.388", fillcolor="#f2c29f"] ;
1594 -> 1596 ;
1597 [label="Env1 <= 0.995\nmse = 0.031\nsamples = 97\nvalue = 35.23", fillcolor="#f3c3a0"] ;
1596 -> 1597 ;
1598 [label="(...)", fillcolor="#C0C0C0"] ;
1597 -> 1598 ;
1601 [label="(...)", fillcolor="#C0C0C0"] ;
1597 -> 1601 ;
1604 [label="Env3 <= 37.645\nmse = 0.049\nsamples = 138\nvalue = 35.494", fillcolor="#f2c19e"] ;
1596 -> 1604 ;
1605 [label="(...)", fillcolor="#C0C0C0"] ;
1604 -> 1605 ;
1608 [label="(...)", fillcolor="#C0C0C0"] ;
1604 -> 1608 ;
1611 [label="Env6 <= 33.055\nmse = 0.163\nsamples = 1477\nvalue = 36.203", fillcolor="#f1bd97"] ;
1593 -> 1611 ;
1612 [label="Env5 <= 7.025\nmse = 0.226\nsamples = 112\nvalue = 35.719", fillcolor="#f2c09b"] ;
1611 -> 1612 ;
1613 [label="현재값 <= 62.805\nmse = 0.212\nsamples = 68\nvalue = 35.549", fillcolor="#f2c19d"] ;
1612 -> 1613 ;
1614 [label="(...)", fillcolor="#C0C0C0"] ;
1613 -> 1614 ;
1617 [label="(...)", fillcolor="#C0C0C0"] ;
1613 -> 1617 ;
1618 [label="Env6 <= 32.705\nmse = 0.157\nsamples = 44\nvalue = 35.943", fillcolor="#f2be99"] ;
1612 -> 1618 ;
1619 [label="(...)", fillcolor="#C0C0C0"] ;
1618 -> 1619 ;
1622 [label="(...)", fillcolor="#C0C0C0"] ;
1618 -> 1622 ;
1625 [label="Env5 <= 7.045\nmse = 0.135\nsamples = 1365\nvalue = 36.245", fillcolor="#f1bc96"] ;
1611 -> 1625 ;
1626 [label="Env4 <= 1.115\nmse = 0.095\nsamples = 939\nvalue = 36.163", fillcolor="#f1bd97"] ;
1625 -> 1626 ;
1627 [label="(...)", fillcolor="#C0C0C0"] ;
1626 -> 1627 ;
1630 [label="(...)", fillcolor="#C0C0C0"] ;
1626 -> 1630 ;
1633 [label="Reward <= 4.2\nmse = 0.177\nsamples = 426\nvalue = 36.424", fillcolor="#f1bb95"] ;
1625 -> 1633 ;
1634 [label="(...)", fillcolor="#C0C0C0"] ;
1633 -> 1634 ;
1637 [label="(...)", fillcolor="#C0C0C0"] ;
1633 -> 1637 ;
1640 [label="Env7 <= 71.645\nmse = 0.995\nsamples = 5317\nvalue = 37.756", fillcolor="#efb388"] ;
1560 -> 1640 ;
1641 [label="Env5 <= 6.975\nmse = 0.983\nsamples = 3856\nvalue = 37.519", fillcolor="#f0b58a"] ;
1640 -> 1641 ;
1642 [label="Env1 <= 1.365\nmse = 0.984\nsamples = 1492\nvalue = 37.153", fillcolor="#f0b78e"] ;
1641 -> 1642 ;
1643 [label="Env3 <= 37.835\nmse = 0.736\nsamples = 1052\nvalue = 36.744", fillcolor="#f1b992"] ;
1642 -> 1643 ;
1644 [label="Env6 <= 34.585\nmse = 1.304\nsamples = 429\nvalue = 36.405", fillcolor="#f1bc95"] ;
1643 -> 1644 ;
1645 [label="(...)", fillcolor="#C0C0C0"] ;
1644 -> 1645 ;
1648 [label="(...)", fillcolor="#C0C0C0"] ;
1644 -> 1648 ;
1651 [label="Env4 <= 0.865\nmse = 0.218\nsamples = 623\nvalue = 36.975", fillcolor="#f0b890"] ;
1643 -> 1651 ;
1652 [label="(...)", fillcolor="#C0C0C0"] ;
1651 -> 1652 ;
1655 [label="(...)", fillcolor="#C0C0C0"] ;
1651 -> 1655 ;
1658 [label="Env6 <= 30.28\nmse = 0.233\nsamples = 440\nvalue = 38.125", fillcolor="#efb185"] ;
1642 -> 1658 ;
1659 [label="Env5 <= 6.935\nmse = 0.389\nsamples = 29\nvalue = 39.072", fillcolor="#eeac7c"] ;
1658 -> 1659 ;
1660 [label="(...)", fillcolor="#C0C0C0"] ;
1659 -> 1660 ;
1663 [label="(...)", fillcolor="#C0C0C0"] ;
1659 -> 1663 ;
1664 [label="Reward <= 1.345\nmse = 0.161\nsamples = 411\nvalue = 38.063", fillcolor="#efb285"] ;
1658 -> 1664 ;
1665 [label="(...)", fillcolor="#C0C0C0"] ;
1664 -> 1665 ;
1668 [label="(...)", fillcolor="#C0C0C0"] ;
1664 -> 1668 ;
1671 [label="Target <= 59.865\nmse = 0.846\nsamples = 2364\nvalue = 37.748", fillcolor="#efb388"] ;
1641 -> 1671 ;
1672 [label="Env7 <= 69.75\nmse = 1.068\nsamples = 770\nvalue = 37.295", fillcolor="#f0b68d"] ;
1671 -> 1672 ;
1673 [label="Env4 <= 0.85\nmse = 39.803\nsamples = 18\nvalue = 36.345", fillcolor="#f1bc96"] ;
1672 -> 1673 ;
1674 [label="(...)", fillcolor="#C0C0C0"] ;
1673 -> 1674 ;
1675 [label="(...)", fillcolor="#C0C0C0"] ;
1673 -> 1675 ;
1676 [label="Reward <= 2.395\nmse = 0.195\nsamples = 752\nvalue = 37.316", fillcolor="#f0b68c"] ;
1672 -> 1676 ;
1677 [label="(...)", fillcolor="#C0C0C0"] ;
1676 -> 1677 ;
1680 [label="(...)", fillcolor="#C0C0C0"] ;
1676 -> 1680 ;
1683 [label="Env1 <= 0.44\nmse = 0.592\nsamples = 1594\nvalue = 37.966", fillcolor="#efb286"] ;
1671 -> 1683 ;
1684 [label="Env6 <= 35.245\nmse = 0.088\nsamples = 69\nvalue = 36.431", fillcolor="#f1bb95"] ;
1683 -> 1684 ;
1685 [label="(...)", fillcolor="#C0C0C0"] ;
1684 -> 1685 ;
1688 [label="(...)", fillcolor="#C0C0C0"] ;
1684 -> 1688 ;
1691 [label="Env1 <= 1.08\nmse = 0.5\nsamples = 1525\nvalue = 38.038", fillcolor="#efb286"] ;
1683 -> 1691 ;
1692 [label="(...)", fillcolor="#C0C0C0"] ;
1691 -> 1692 ;
1695 [label="(...)", fillcolor="#C0C0C0"] ;
1691 -> 1695 ;
1698 [label="Env3 <= 37.785\nmse = 0.503\nsamples = 1461\nvalue = 38.37", fillcolor="#efb082"] ;
1640 -> 1698 ;
1699 [label="Reward <= 0.835\nmse = 0.88\nsamples = 84\nvalue = 37.342", fillcolor="#f0b68c"] ;
1698 -> 1699 ;
1700 [label="Env5 <= 6.945\nmse = 0.438\nsamples = 40\nvalue = 36.702", fillcolor="#f1ba92"] ;
1699 -> 1700 ;
1701 [label="Reward <= -0.655\nmse = 0.157\nsamples = 24\nvalue = 36.346", fillcolor="#f1bc96"] ;
1700 -> 1701 ;
1702 [label="(...)", fillcolor="#C0C0C0"] ;
1701 -> 1702 ;
1703 [label="(...)", fillcolor="#C0C0C0"] ;
1701 -> 1703 ;
1706 [label="Env3 <= 37.67\nmse = 0.191\nsamples = 16\nvalue = 37.462", fillcolor="#f0b58b"] ;
1700 -> 1706 ;
1707 [label="(...)", fillcolor="#C0C0C0"] ;
1706 -> 1707 ;
1708 [label="(...)", fillcolor="#C0C0C0"] ;
1706 -> 1708 ;
1709 [label="Env3 <= 37.645\nmse = 0.524\nsamples = 44\nvalue = 37.964", fillcolor="#efb286"] ;
1699 -> 1709 ;
1710 [label="mse = 0.6\nsamples = 12\nvalue = 37.309", fillcolor="#f0b68c"] ;
1709 -> 1710 ;
1711 [label="Env1 <= 1.455\nmse = 0.323\nsamples = 32\nvalue = 38.17", fillcolor="#efb184"] ;
1709 -> 1711 ;
1712 [label="(...)", fillcolor="#C0C0C0"] ;
1711 -> 1712 ;
1715 [label="(...)", fillcolor="#C0C0C0"] ;
1711 -> 1715 ;
1716 [label="Env5 <= 7.015\nmse = 0.407\nsamples = 1377\nvalue = 38.436", fillcolor="#efaf82"] ;
1698 -> 1716 ;
1717 [label="Reward <= -2.655\nmse = 0.369\nsamples = 1082\nvalue = 38.542", fillcolor="#eeaf81"] ;
1716 -> 1717 ;
1718 [label="Env5 <= 6.915\nmse = 0.127\nsamples = 19\nvalue = 36.675", fillcolor="#f1ba92"] ;
1717 -> 1718 ;
1719 [label="(...)", fillcolor="#C0C0C0"] ;
1718 -> 1719 ;
1720 [label="(...)", fillcolor="#C0C0C0"] ;
1718 -> 1720 ;
1721 [label="Env6 <= 29.505\nmse = 0.309\nsamples = 1063\nvalue = 38.575", fillcolor="#eeae80"] ;
1717 -> 1721 ;
1722 [label="(...)", fillcolor="#C0C0C0"] ;
1721 -> 1722 ;
1725 [label="(...)", fillcolor="#C0C0C0"] ;
1721 -> 1725 ;
1728 [label="Env1 <= 1.115\nmse = 0.341\nsamples = 295\nvalue = 38.024", fillcolor="#efb286"] ;
1716 -> 1728 ;
1729 [label="Env2 <= 1.095\nmse = 0.086\nsamples = 24\nvalue = 38.83", fillcolor="#eead7e"] ;
1728 -> 1729 ;
1730 [label="(...)", fillcolor="#C0C0C0"] ;
1729 -> 1730 ;
1731 [label="(...)", fillcolor="#C0C0C0"] ;
1729 -> 1731 ;
1732 [label="Env6 <= 30.155\nmse = 0.298\nsamples = 271\nvalue = 37.949", fillcolor="#efb286"] ;
1728 -> 1732 ;
1733 [label="(...)", fillcolor="#C0C0C0"] ;
1732 -> 1733 ;
1736 [label="(...)", fillcolor="#C0C0C0"] ;
1732 -> 1736 ;
1739 [label="Env3 <= 36.875\nmse = 0.231\nsamples = 6596\nvalue = 38.035", fillcolor="#efb286"] ;
1335 -> 1739 ;
1740 [label="Env4 <= 1.395\nmse = 0.116\nsamples = 6102\nvalue = 37.949", fillcolor="#efb286"] ;
1739 -> 1740 ;
1741 [label="Env3 <= 35.885\nmse = 0.143\nsamples = 2149\nvalue = 37.69", fillcolor="#efb489"] ;
1740 -> 1741 ;
1742 [label="Reward <= -0.375\nmse = 0.206\nsamples = 538\nvalue = 37.356", fillcolor="#f0b68c"] ;
1741 -> 1742 ;
1743 [label="Env6 <= 33.52\nmse = 0.157\nsamples = 93\nvalue = 36.828", fillcolor="#f1b991"] ;
1742 -> 1743 ;
1744 [label="Env7 <= 69.715\nmse = 0.104\nsamples = 24\nvalue = 37.322", fillcolor="#f0b68c"] ;
1743 -> 1744 ;
1745 [label="mse = 0.071\nsamples = 10\nvalue = 37.646", fillcolor="#f0b489"] ;
1744 -> 1745 ;
1746 [label="mse = 0.006\nsamples = 14\nvalue = 37.102", fillcolor="#f0b78e"] ;
1744 -> 1746 ;
1747 [label="Env6 <= 36.795\nmse = 0.07\nsamples = 69\nvalue = 36.668", fillcolor="#f1ba92"] ;
1743 -> 1747 ;
1748 [label="Env5 <= 7.015\nmse = 0.027\nsamples = 54\nvalue = 36.754", fillcolor="#f1b992"] ;
1747 -> 1748 ;
1749 [label="(...)", fillcolor="#C0C0C0"] ;
1748 -> 1749 ;
1752 [label="(...)", fillcolor="#C0C0C0"] ;
1748 -> 1752 ;
1753 [label="mse = 0.076\nsamples = 15\nvalue = 36.264", fillcolor="#f1bc96"] ;
1747 -> 1753 ;
1754 [label="Env1 <= 0.645\nmse = 0.144\nsamples = 445\nvalue = 37.47", fillcolor="#f0b58b"] ;
1742 -> 1754 ;
1755 [label="Env4 <= 1.355\nmse = 0.09\nsamples = 379\nvalue = 37.55", fillcolor="#f0b58a"] ;
1754 -> 1755 ;
1756 [label="Env3 <= 35.495\nmse = 0.071\nsamples = 256\nvalue = 37.659", fillcolor="#f0b489"] ;
1755 -> 1756 ;
1757 [label="(...)", fillcolor="#C0C0C0"] ;
1756 -> 1757 ;
1760 [label="(...)", fillcolor="#C0C0C0"] ;
1756 -> 1760 ;
1763 [label="Env3 <= 35.715\nmse = 0.049\nsamples = 123\nvalue = 37.312", fillcolor="#f0b68c"] ;
1755 -> 1763 ;
1764 [label="(...)", fillcolor="#C0C0C0"] ;
1763 -> 1764 ;
1767 [label="(...)", fillcolor="#C0C0C0"] ;
1763 -> 1767 ;
1770 [label="Env4 <= 1.195\nmse = 0.192\nsamples = 66\nvalue = 36.975", fillcolor="#f0b890"] ;
1754 -> 1770 ;
1771 [label="Env3 <= 35.475\nmse = 0.108\nsamples = 57\nvalue = 36.84", fillcolor="#f1b991"] ;
1770 -> 1771 ;
1772 [label="(...)", fillcolor="#C0C0C0"] ;
1771 -> 1772 ;
1775 [label="(...)", fillcolor="#C0C0C0"] ;
1771 -> 1775 ;
1778 [label="mse = 0.001\nsamples = 9\nvalue = 37.725", fillcolor="#efb489"] ;
1770 -> 1778 ;
